%YAML:1.0
---
opencv_ml_svm:
   format: 3
   svmType: C_SVC
   kernel:
      type: LINEAR
   C: 2.6699999999999999
   term_criteria: { epsilon:1.1920928955078125e-07, iterations:1000 }
   var_count: 94
   class_count: 14
   class_labels: !!opencv-matrix
      rows: 14
      cols: 1
      dt: i
      data: [ 1, 2, 3, 4, 5, 6, 7, 8, 9, 10, 11, 12, 13, 14 ]
   sv_total: 91
   support_vectors:
      - [ -0.308175564, -0.844329834, 0.731172264, -1.65001655,
          -0.592564881, 0.149814248, 0.149437547, 0.0342438444,
          0.460077435, 0.149437547, 0.149437547, -0.311337262,
          0.739563107, 0.149437547, 0.149437547, -1.37354088,
          0.113307811, 0.149437547, 0.149437547, 1.37759793,
          -0.361380994, 0.542194247, 0.247312218, -0.15245676,
          -0.526162386, -0.0893739983, 0.364221483, -0.158995926,
          -0.102378286, -0.055798877, 0.492829323, -0.0538074262,
          1.23328507, -0.153750628, 0.803405881, -0.141323939,
          -0.177449152, -0.0720326379, 0.799822271, -0.235841662,
          0.117873214, -0.166095957, 0.0705770552, -0.191637218,
          -0.126146466, -0.131973967, 0.143949598, -0.120763153,
          0.0730555356, -0.0759155154, 0.161465675, -0.221853524,
          -0.152878597, -0.142656431, -0.168575913, -0.0115227196,
          0.844786882, -0.0459475517, 0.247676015, -0.199536383,
          -0.417798221, -0.114513531, -0.0927926898, -0.0890121609,
          0.0888717547, 0.0144094676, 0.707400382, -0.313785911,
          -0.948144257, -0.149103001, -0.395963013, -0.0887039304,
          0.298294455, -0.00980189536, 0.797089994, -0.280426085,
          -0.836516798, -0.109289385, 0.0783043131, -0.0504630953,
          0.139774874, -0.0870233923, 0.147141024, -0.196385309,
          -0.419659644, -0.0527694076, 0.702791512, 0.537625134,
          0.234267905, -0.619701862, -0.317302763, 0.0827744082,
          0.0163416322, 0.0659959167 ]
      - [ -0.0861153975, -0.533890069, -0.185833201, 0.0115215443,
          0.255953491, -0.234001771, -0.218029141, 0.0354917832,
          0.0048015439, 0.0354917832, 0.0354917832, 0.0354917832,
          0.0221621711, 0.0354917832, 0.0354917832, 0.0354917832,
          0.0930196345, 0.0354917832, 0.0354917832, 0.0560608432,
          0.0875661522, 0.272210777, 0.135147512, -0.00150521938,
          -0.0593733676, 0.0132905124, 0.227568612, 0.0491163991,
          -0.161210313, 0.0367514044, -0.0424709134, -0.00105546194,
          -0.131741926, 0.00647330843, 0.0792819485, 0.0534675159,
          -0.102363974, 0.0351303369, -0.0666876882, -0.0068135662,
          -0.271009773, -0.000386454863, -0.217534021, 0.0868005902,
          0.22852248, 0.0406549647, -0.00252340524, -0.00682091154,
          -0.336193949, 0.00288190087, -0.262528151, 0.0918072015,
          0.288166434, 0.0464546382, 0.0678093135, -0.00341435825,
          -0.261398673, 0.000174469969, -0.292839229, 0.0801374018,
          0.195666552, 0.0391301326, -0.0292253587, -0.00430064695,
          -0.218681157, 0.014338756, 0.0657498017, 0.0688501,
          0.0283888299, 0.0421703309, -0.0414497964, 0.0054284106,
          0.0278301183, 0.0162293278, 0.234702289, 0.0634270608,
          -0.0263533387, 0.0464081615, 0.0381386802, 0.00188962813,
          -0.0216472745, 0.0134702791, 0.228150934, 0.0514919572,
          -0.101322442, 0.0399564505, 0.0149440905, -0.817165315,
          0.349620283, 0.00094024901, 0.103866138, 0.0977700725,
          0.315557718, -0.0505890958 ]
      - [ -0.396243036, 0.340372354, -0.303188443, -1.31278622,
          0.00161214045, 0.050211858, 0.0488738567, 0.0147045581,
          0.0847406387, 0.0488738567, 0.0488738567, -0.0116057992,
          -0.175804257, 0.0488738567, 0.0488738567, -0.235616043,
          0.100831971, 0.0488738567, 0.0488738567, -0.237566665,
          0.401946545, 0.939754665, 0.396517903, -0.0470074117,
          -0.269543856, 0.0376839638, 0.519535184, -0.0158632193,
          -0.321938813, 0.0301521234, 0.00278941006, 0.0235186219,
          0.225017935, 0.0566212907, 0.375631928, -0.046201583,
          -0.211142972, 0.0402324386, 0.205885559, 0.0831361711,
          0.433678269, 0.0788068622, 0.301124543, -0.0869302526,
          -0.302872509, 0.026714148, 0.161151886, 0.0670341477,
          0.195005968, 0.101267979, 0.461827278, -0.0887603313,
          -0.409075975, 0.0142168868, -0.0510700084, 0.0398243517,
          0.54922235, 0.0291421972, 0.391802073, -0.0629648045,
          -0.424197942, 0.00398699054, -0.0311869793, -0.116050147,
          -0.335631371, -0.0251743589, 0.483622015, -0.117434807,
          -0.667810738, -0.0334400311, -0.207487255, -0.121111266,
          -0.161767021, -0.0273451116, 0.758863091, -0.106665976,
          -0.807668507, -0.0350085087, -0.247482121, -0.0338686109,
          0.0780313611, -0.0199561585, 0.560330868, -0.0399631858,
          -0.734402716, -0.00284069125, -0.125992656, 0.418018103,
          -0.234540388, -0.5410676, 0.00362210535, 0.20734632,
          0.506436646, -0.35981518 ]
      - [ 0.401605487, 0.166447103, -0.648919404, -0.0184628945,
          0.405124962, -0.02186477, -0.0226386078, -0.0226386078,
          -0.117284939, -0.0226386078, -0.0226386078, -0.0226386078,
          -0.418446362, -0.0226386078, -0.0226386078, 0.0475243852,
          -0.335184962, -0.0226386078, -0.0226386078, 0.175301969,
          -0.0947081968, 0.484192669, 0.178422317, -0.0931763425,
          0.0489668101, -0.113716133, -0.087572217, 0.0807249025,
          0.17659007, -0.0198820047, 0.0758218169, -0.0968564972,
          0.41424644, -0.119591489, 0.199769303, 0.0859422013,
          0.186541051, -0.0208608992, 0.0887025371, -0.101363435,
          0.283823013, -0.118049309, 0.379840463, 0.0931480154,
          0.31101355, -0.0254980363, 0.0723192245, -0.105290227,
          0.000146722959, -0.12681669, 0.0628100038, 0.0794734731,
          0.178975418, -0.0285795331, 0.191471383, -0.13021864,
          -0.249771684, -0.128385425, 0.0109118484, 0.0763976201,
          0.0733245239, -0.0330063067, -0.099932082, -0.119182989,
          -0.0708841681, -0.112313636, -0.0248003975, 0.061538633,
          -0.132401168, -0.031316448, -0.184089452, -0.085371688,
          0.0166046526, -0.104143836, -0.110679939, 0.070988141,
          -0.0285770185, -0.0248178579, -0.100511767, -0.0961639658,
          -0.3418338, -0.103284903, -0.0946736038, 0.0765467212,
          0.138181672, -0.0215807352, -0.0496260189, 0.152873412,
          -0.031908121, 0.0258708019, 0.0355505794, -0.238300249,
          -0.0985225886, 0.154436216 ]
      - [ -0.00260304403, -1.32051516, -1.2084564, -0.952839196,
          0.260959744, 0.306439817, 0.305966765, -0.0264490843,
          -0.977608979, 0.305966765, 0.305966765, 0.00198409916,
          -0.217278287, 0.305966765, 0.305966765, 0.103000492,
          0.254171342, 0.305966765, 0.305966765, -0.341822207,
          0.822835088, 0.727538764, 0.428875208, -0.0374877118,
          0.831723571, -0.0891656801, 0.409411162, -0.332692385,
          -1.30358768, -0.0640734956, -0.0593857244, -0.306717694,
          -0.258016229, -0.24369669, 0.592386484, -0.357311189,
          -0.567293167, -0.0973772928, 0.272016764, -0.441913128,
          -1.08810914, -0.268929988, -0.217267305, -0.371646732,
          0.682904959, -0.0995727256, 1.14209843, -0.205447674,
          -0.632566333, -0.0581602193, 0.0738718882, -0.254020423,
          1.07502651, -0.02930687, 0.658272803, 0.25449729, 1.42495179,
          0.108336046, -0.224816531, -0.20784536, 0.250941008,
          0.0293830242, 0.545859694, 0.0307370368, 0.021407444,
          0.122885436, 0.116701476, -0.316181004, 0.351664156,
          0.0155458646, 0.232986599, -0.21593672, -1.1960218,
          0.0401099734, 0.398960233, -0.433660328, -0.220101312,
          0.0213311817, 0.91622746, -0.10695605, -0.378282338,
          -0.0586129874, -0.137139678, -0.301606089, -0.0244220831,
          -0.0102189602, 0.595308661, 0.791714191, -0.425572515,
          -0.579522908, -0.284329265, 0.0162589327, 0.784579694,
          -0.303127199 ]
      - [ -0.15467672, -0.173926771, -0.164335951, 0.0627134964,
          1.11660826, 0.0168864094, 0.0161202233, 0.0161202233,
          0.0330148824, 0.0161202233, 0.0161202233, 0.0161202233,
          0.0429328792, 0.0161202233, 0.0161202233, 0.0323496722,
          0.337118804, 0.0161202233, 0.0161202233, -0.206135243,
          -0.976544499, 0.940847099, -1.05193532, -0.128070772,
          -0.559823096, -0.180446103, -0.393703371, -0.047942657,
          0.345965952, -0.0983204916, 0.136090487, -0.166257307,
          -0.961105764, -0.1056934, -0.215768978, -0.0089629814,
          0.955005109, -0.0694101602, 0.156648263, 0.00763474498,
          0.504824519, -0.0835110247, 0.270650804, -0.0355676413,
          0.561993003, -0.0767758265, 0.189499095, -0.0458445773,
          0.885524392, -0.128250033, 0.261583984, -0.0381503887,
          0.55501616, -0.120862834, -0.0849961862, -0.265978813,
          -0.738225639, -0.211740911, 0.267932296, -0.146364197,
          0.130240098, -0.158193558, -0.013990894, -0.273611665,
          -0.205629945, -0.313342869, 0.110512756, -0.0594034158,
          0.561955333, -0.183235824, 0.0177467354, -0.259310871,
          -0.0808651373, -0.24963975, 0.580013335, -0.111965984,
          0.0549196079, -0.174798012, -0.133659527, -0.152865365,
          0.723873675, -0.225288108, 0.244316742, -0.00259763049,
          0.379486203, -0.146895438, -0.244366437, -0.714701533,
          -0.29565841, -0.323953003, 0.608052015, -0.413066357,
          0.883030474, 0.256296545 ]
      - [ -0.51725018, 0.12289346, -1.15602005, -0.0087686386,
          0.140161976, -0.0092832353, -0.010376757, -0.010376757,
          -0.0478578471, -0.010376757, -0.010376757, -0.010376757,
          -0.0823063552, -0.010376757, -0.010376757, -0.010376757,
          -0.00275491527, -0.010376757, -0.010376757, 0.171693876,
          0.504580021, 0.714934528, 0.273745269, -0.169665128,
          0.0771863908, -0.143497303, 0.603656471, -0.192288488,
          -0.639972389, -0.111545607, -0.180467591, -0.25473547,
          0.238581181, -0.314107299, 0.0456283391, -0.0800586492,
          0.445701271, -0.0804151669, 0.899602592, -0.381542861,
          -0.761577129, -0.359097958, -0.259492725, -0.0595769174,
          1.03493702, -0.108479708, 0.941569805, -0.2492847,
          -0.0648220554, -0.243733272, 0.0502741337, -0.12412709,
          0.330331832, -0.145180941, 0.0304604247, -0.00383818336,
          1.54955828, -0.179084972, -0.00647004833, -0.135176003,
          -0.243437633, -0.111168444, 0.175647229, -0.236110702,
          -0.328680456, -0.130317688, 0.28778556, -0.136175022,
          0.247621492, -0.0669693053, 0.411037982, -0.242305115,
          -0.753406227, -0.103898853, 0.593961477, -0.211642534,
          -0.27003631, -0.0348936282, 0.618088782, -0.0996336788,
          0.231251284, -0.105354287, 0.52013886, -0.21543549,
          -0.86177671, -0.0703552738, 0.136815742, -0.141300857,
          0.0613396093, 0.0409690663, 0.110252306, 0.134791762,
          0.0576989427, -0.263750345 ]
      - [ 0.267129183, -0.437927574, 0.80659759, -0.339816779,
          0.394145787, -0.265026748, -0.266462713, -0.266462713,
          -0.363602638, -0.266462713, -0.266462713, -0.266462713,
          -0.0969936773, -0.266462713, -0.266462713, 0.109282531,
          -0.266646653, -0.266462713, -0.266462713, 0.615315735,
          0.983553708, 0.885518074, 0.106634527, 0.14074333,
          0.0884236991, -0.00960450433, 0.0113681294, 0.106639571,
          -0.10430222, 0.0397412814, -0.684607148, 0.104382731,
          0.588400841, -0.0106043639, 0.68490994, 0.0980858654,
          -0.236222297, 0.0157233123, -0.816485643, 0.186145976,
          1.24255788, -0.0503223911, -0.235185891, 0.259202033,
          0.844382524, 0.00581596186, -0.715832651, 0.109745063,
          0.0506489091, -0.0510737039, -0.583603859, 0.248926774,
          1.22780144, 0.0353556797, -0.111977644, 0.000374415627,
          -0.507899106, -0.0966085568, -0.657752454, 0.217197061,
          1.09308708, 0.0148988022, -0.232692525, 0.0718185604,
          0.229255304, -0.0495016053, 0.204289168, 0.0825918466,
          -0.408125311, -0.00189609907, -0.778681755, 0.0895757824,
          0.19295162, 0.0152270915, 0.545217097, 0.123175748,
          -0.798044682, 0.0431894325, -0.81460011, 0.0939659551,
          -0.813292027, 0.00882460456, -0.181398913, 0.168862179,
          0.0439747199, 0.0601698421, -0.437331945, -0.325165778,
          1.11567533, -0.185059085, -0.179210052, 0.200393423,
          -0.17569682, -0.450936437 ]
      - [ -0.29194662, 0.210990086, 0.328291088, -1.49587965,
          0.345380872, 0.0833982378, 0.0829020739, -0.333260894,
          -0.109135941, 0.0829020739, 0.0829020739, 0.0124834888,
          0.198028952, 0.0829020739, 0.0829020739, 0.635037959,
          0.269422501, 0.0829020739, 0.0829020739, -1.04452956,
          -0.0258576423, 0.425445318, 0.211817235, 0.0447147787,
          -0.116279043, 0.0567272231, -0.00941598136, -0.161151215,
          -0.190486386, -0.00784309953, 0.110533245, 0.0829060674,
          0.5682742, 0.0775489807, 0.505655587, -0.160412267,
          -0.254907221, -0.00500856293, 0.172737733, 0.0803383067,
          0.77818954, 0.0821535662, 0.732492864, -0.184555486,
          -0.434855282, -0.0312342569, -0.0227005053, 0.02713296,
          0.369441807, 0.0603348613, 0.554688632, -0.195902258,
          -0.485927641, -0.049227152, -0.147675946, -0.00578287849,
          -0.0832184553, 0.0244252682, 0.242571995, -0.160674706,
          -0.339692175, -0.0403519422, -0.118760809, -0.00146596052,
          -0.19340454, 0.0317766033, 0.135644466, -0.119274281,
          -0.260154277, -0.0349209681, -0.147235468, 0.0490327589,
          0.11452923, 0.0464486666, 0.0911940262, -0.104943782,
          -0.26527366, -0.0252368636, -0.1236495, 0.0634429157,
          -0.0410252102, 0.0357627012, -0.189567223, -0.136773109,
          -0.284082532, -0.0196595062, 0.0140314903, 0.240043491,
          0.00294265174, -0.00533195771, 0.00166165305, 0.131744742,
          0.0261697434, -0.397230536 ]
      - [ -0.427666545, -0.981493354, -1.10638058, 0.0117928395,
          1.10402358, -0.0114870965, -0.0130580496, -0.0130580496,
          -0.335151106, -0.0130580496, -0.0130580496, -0.0130580496,
          -0.558840811, -0.0130580496, -0.0130580496, -0.0130580496,
          0.0249575283, -0.0130580496, -0.0130580496, 0.604484499,
          -0.0641510338, 1.47538114, 0.395111322, -0.061044503,
          -0.0109644467, -0.0428783372, 0.0227068476, -0.0170915984,
          -0.00553394109, -0.0357798934, -0.428524196, -0.165645704,
          -0.190778673, -0.0795833617, 0.349238724, 0.0540083051,
          0.704568624, -0.0293037333, -0.265157908, -0.206633613,
          -0.598988235, -0.0904127359, 0.531187773, 0.0830766931,
          1.25251985, -0.0333581418, -0.109633833, -0.103302658,
          0.504072607, -0.180144578, -0.016050199, 0.0955796763,
          1.04273868, -0.0748292655, -0.04324653, -0.261226684,
          -0.130449802, -0.228762388, 0.14334552, -0.054011438,
          0.182169661, -0.145945892, -0.504147291, -0.35368076,
          -0.79059124, -0.248460785, 0.693998873, -0.0911717713,
          0.383966446, -0.175527453, -0.536839724, -0.267003179,
          -0.264654219, -0.189734384, 0.945000172, -0.0376536995,
          0.432683796, -0.11963588, 0.0812273026, -0.198124513,
          -0.92490536, -0.0584970824, 0.955945015, 0.0209167786,
          0.574395001, -0.0814868212, -0.601947427, -0.504735291,
          -0.187000707, 0.444463491, 0.453045756, -0.0891181752,
          -0.0505856648, -0.066068992 ]
      - [ -0.373583674, -0.176204607, 0.503553331, -1.07290888,
          0.0801307857, 0.063897036, 0.06356024, 0.0297705773,
          0.163624376, 0.06356024, 0.06356024, 0.0117247188,
          0.0462789088, 0.06356024, 0.06356024, 0.280662924,
          -0.0681295916, 0.06356024, 0.06356024, -0.652154386,
          0.259905696, 0.307443112, 0.151067972, 0.138398707,
          -0.170186237, 0.248818964, -0.0689251274, -0.410610616,
          0.154639721, 0.0192465205, 0.294754744, 0.127652571,
          0.132936046, 0.178259283, 0.00979257561, -0.414169967,
          0.172612026, -0.000985957566, 0.405605704, 0.06791237,
          0.159613833, 0.191592455, 0.231270507, -0.557944477,
          -0.165975347, -0.0671136305, 0.149226561, 0.136839315,
          0.444484055, 0.2412, 0.409135461, -0.619384766, -0.389708281,
          -0.0843088552, 0.0187423043, 0.224816203, 0.393504381,
          0.286206543, 0.443711042, -0.66435951, -0.545792222,
          -0.041113425, 0.114312924, 0.0878891349, -0.177388892,
          0.289935589, 0.261990756, -0.666224599, -0.440862656,
          -0.0566788763, -0.0101932511, 0.162824944, 0.141806558,
          0.279310316, 0.238559172, -0.636289299, -0.591869473,
          -0.0399481356, 0.026231505, 0.201584011, 0.0818044618,
          0.280226201, 0.0896309167, -0.503571153, -0.322820872,
          -0.00272883894, 0.112075627, 0.374774367, -0.195275098,
          -0.407515973, -0.00373274647, 0.276254177, 0.164043963,
          -0.208548784 ]
      - [ 0.0859105885, -0.372378021, -0.171720386, -0.276375055,
          0.673835993, -0.0310206488, 0.0575710647, 0.0252166595,
          0.0966600478, 0.0575710647, 0.0575710647, 0.00168951147,
          -0.20533818, 0.0575710647, 0.0575710647, 0.161427274,
          -0.710499823, 0.0575710647, 0.0575710647, -0.415275693,
          -0.297900498, 1.1321981, -0.0994264483, 0.0556226149,
          -0.148416802, 0.0828139782, 0.0223950446, -0.239075437,
          -0.446499884, 0.0042111231, 0.0375037901, 0.0868799984,
          0.340866566, 0.13445802, 0.50967598, -0.211952299,
          -0.307763249, 0.0550929084, 0.308953702, 0.181291237,
          0.76650846, 0.21071212, 0.744514823, -0.221008003,
          -0.371208727, 0.0707866773, 0.300310194, 0.266447991,
          1.02348053, 0.240633786, 0.665033937, -0.239448518,
          -0.495512843, 0.0538449511, 0.134558409, 0.18165946,
          0.303391844, 0.170958549, 0.0760072246, -0.234370276,
          -0.437142909, 0.0564450063, 0.160369888, 0.0314905383,
          -0.515337527, 0.0692966431, -0.406564206, -0.178135172,
          -0.213920355, 0.0391326137, 0.147283494, 0.00658135349,
          -0.449610978, 0.0364304855, -0.45542708, -0.200382039,
          -0.464990854, 0.0132707208, 0.0238353107, 0.0715319067,
          -0.190022588, 0.0501034819, -0.350760132, -0.226803258,
          -0.59325999, -0.0195233189, -0.117248744, 0.247284338,
          -0.0924060345, -0.179057881, -0.188112125, 0.532338977,
          -0.0799522996, -0.240095139 ]
      - [ -0.176040009, 0.224020466, 0.326144606, -0.341833889,
          0.437611103, 0.0420856886, 0.0413827822, -0.0117190517,
          0.10467162, 0.0413827822, 0.0413827822, -0.4994317,
          -0.437356293, 0.0413827822, 0.0413827822, -0.186863393,
          0.402639002, 0.0413827822, 0.0413827822, -0.726097226,
          0.0240009762, 0.47440353, 0.0540859103, -0.276158124,
          -0.826543272, -0.222582608, 0.0785775185, -0.00554130506,
          -0.229249448, -0.104479216, 0.265709996, -0.216130897,
          -0.333602369, -0.155783638, 0.323062062, 0.0873679891,
          0.0998660251, -0.0549372584, 0.349567324, -0.0672087744,
          0.460796565, -0.0489255637, 0.63114965, 0.11795269,
          0.155889407, -0.0285631586, 0.290161103, 0.00203245017,
          0.448897034, -0.016441416, 0.581978738, 0.0441218503,
          -0.12034858, -0.0396363884, 0.214671418, -0.135450229,
          -0.342207789, -0.0421004966, 0.540421426, -0.0696271434,
          -0.51762265, -0.0680158585, 0.0845217928, -0.13811776,
          0.423374414, -0.0932397172, 0.830976546, -0.102262266,
          -0.857140601, -0.105784602, -0.0850318596, -0.125888854,
          0.757645667, -0.116139874, 1.08701527, -0.107408121,
          -1.06846178, -0.116225466, -0.078630507, -0.180649295,
          -0.0848782584, -0.192317665, 0.310313553, -0.0589257553,
          -0.699262857, -0.127012193, 0.0724598318, 0.627568841,
          -0.491338223, -0.818911374, -0.0431708507, 0.159217596,
          0.586415768, -0.0197816361 ]
      - [ -0.528179109, -0.470293224, -0.0200198293, -0.182895824,
          -0.402704269, -0.0283068214, 0.00580176339, 0.0672142729,
          0.0814335197, 0.0894804522, 0.0894804522, 0.0820583925,
          0.0684640929, 0.0894804522, 0.0894804522, 0.0820583925,
          0.125775054, 0.0894804522, 0.0894804522, 0.177860036,
          0.225889266, 0.0894804522, 0.0894804522, 0.000975266681,
          0.348562717, -0.0122531066, -0.331382275, -0.0446620733,
          -0.0763601437, -0.0374920405, -0.0748685077, -0.0100109717,
          0.25345245, -0.0080044046, -0.210781857, -0.0466398783,
          -0.0099326754, -0.0280456897, 0.0906579718, -0.00625896594,
          0.401250869, 0.00411662878, 0.0109930877, -0.0387454443,
          0.121497087, -0.0174989756, 0.229273766, 0.00333790667,
          0.24108614, 0.0198474228, 0.0867116973, -0.0499863923,
          -0.110973611, -0.0153913721, 0.156894982, 0.0220089257,
          0.513118923, 0.023702044, -0.0357612334, -0.0777316317,
          -0.578398526, -0.0251212213, -0.0256091971, 0.00705670472,
          0.201006442, 0.021434145, 0.0927568823, -0.0701864734,
          -0.296480775, -0.0350435749, -0.100891583, -0.0118483808,
          0.309387267, 0.00225348561, 0.0781324208, -0.0574707203,
          -0.132713988, -0.0441267751, -0.157826945, -0.025233414,
          0.0290586818, -0.00876410771, -0.0555820987, -0.0413331091,
          -0.102569714, -0.042950213, -0.213640288, -0.839454174,
          0.0957422778, 0.242001712, 0.193797439, 0.144986734,
          0.256379843, -0.0934538618 ]
      - [ -0.224492848, 0.890310705, -0.278589576, 0.376841038,
          0.811521351, 0.0501367673, 0.0501367673, 0.140687689,
          -0.31007579, 0.0501367673, 0.0501367673, 0.232015848,
          -0.859606624, 0.0501367673, 0.0501367673, 0.163883299,
          -0.710488439, 0.0501367673, 0.0501367673, -0.554958582,
          -0.178416058, 0.0501367673, 0.0501367673, 0.0346285738,
          -0.187308386, 0.148409009, 0.560906589, -0.166924164,
          -1.83153832, -0.0625611842, -0.824368596, 0.034455318,
          -0.587662399, 0.234253615, 0.529116035, -0.249448135,
          -1.33641374, -0.0576589033, -0.76790154, 0.269062936,
          0.303399742, 0.320232064, 0.586656928, -0.160126671,
          -0.527534246, 0.0146324458, -0.167129204, 0.298061579,
          -0.0100082885, 0.369737774, 0.27929607, 0.0263519622,
          0.24142465, 0.078745231, 0.0842487812, 0.280764043,
          0.415820509, 0.307967067, -0.0346483588, 0.0776795223,
          0.602605939, 0.071299158, 0.148604542, 0.000133831621,
          -0.823365271, 0.118777841, 0.265985221, 0.0235953256,
          0.33819896, 0.0268870611, 0.334893823, -0.111568436,
          -0.0406116843, 0.0279901642, 1.01411784, -0.0244971886,
          -0.244079486, -0.0221579932, 0.177317262, -0.0411830023,
          0.17509535, 0.0751548782, 1.05047929, -0.0745072812,
          -1.05324101, -0.0466300659, -0.49391371, 0.160470977,
          -0.535336137, -0.016381884, 0.0829783902, 0.031886328,
          0.491402268, -0.215019718 ]
      - [ 0.423257411, 0.245352507, -0.929242909, 0.192343771,
          0.306492746, -0.0266178306, -0.0266178306, -0.00447139796,
          -0.161508858, -0.0266178306, -0.0266178306, -0.223947853,
          -0.224365175, -0.0266178306, -0.0266178306, 0.697085619,
          0.000427492225, -0.0266178306, -0.0266178306, -0.215419784,
          0.167941153, -0.034384463, -0.0266178306, -0.110820517,
          -0.0159326401, -0.129644752, -0.194996148, 0.0446422026,
          0.250022143, -0.0620053336, -0.00624601124, -0.097974591,
          0.130354166, -0.117395967, -0.123254381, 0.0571492575,
          0.303969711, -0.0465191565, 0.00990615133, -0.0905578285,
          -0.0260351654, -0.0907902941, 0.0337629206, 0.0687810704,
          0.325711817, -0.0223354362, 0.0896761864, -0.0753957555,
          -0.160956576, -0.0725065842, -0.0569153875, 0.0639489293,
          0.235267758, -0.0110355364, 0.204386204, -0.043822512,
          0.0121469591, -0.0499385335, 0.0515650064, 0.0574212633,
          0.128632456, -0.011800834, 0.0172157791, -0.061261408,
          0.096823059, -0.0555732735, 0.0531957485, 0.049745623,
          0.02305815, -0.0123644667, -0.0180458333, -0.0799306557,
          -0.0172482785, -0.0901312381, -0.0936938748, 0.052125778,
          0.140730485, -0.0237698089, 0.0410415381, -0.114590511,
          -0.271073848, -0.113610946, -0.136386693, 0.0378699675,
          0.193566278, -0.0499570593, -0.0181985199, 0.142335922,
          0.0408924185, 0.0337476693, 0.0145294955, -0.309258789,
          -0.0618676357, 0.139620811 ]
      - [ 0.174294606, 0.116405681, -0.265856028, 0.472357094,
          0.44908005, 0.00290815858, 0.00290815858, -0.190092266,
          -0.738429964, 0.00290815858, 0.00290815858, -0.0295415279,
          -0.678808868, 0.00290815858, 0.00290815858, 0.313330978,
          0.490920365, 0.00290815858, 0.00290815858, -0.521467268,
          0.37872535, 0.00290815858, 0.00290815858, -0.0064346157,
          0.148951575, -0.0557106473, -0.407478005, 0.0376165323,
          0.566937327, 0.0142356977, 0.135065943, -0.103774555,
          -0.317599863, -0.10449212, -0.419067383, 0.00389386551,
          0.699807763, -0.00309497816, 0.198938414, -0.177033141,
          -0.618523598, -0.117996119, -0.47495535, -0.0512548164,
          0.701983213, -0.0262814946, 0.311763316, -0.0804192051,
          -0.0855147392, -0.0750631168, -0.160884723, -0.0635000691,
          0.394323856, -0.0186751876, 0.125745922, 0.00121041969,
          0.313417226, -0.0409656353, -0.232392237, -0.0518629178,
          0.205255568, -0.0107289981, 0.0637177005, -0.0306536425,
          -0.115350902, -0.0368564315, -0.398030698, -0.052476231,
          0.486253768, -0.00244814414, 0.0996603668, -0.0688501522,
          -0.451441526, -0.0454771295, -0.556261241, -0.0335924812,
          0.666181445, 0.00983748399, 0.252740592, -0.0410317816,
          -0.164137632, -0.0495178439, -0.604742885, 0.0207744706,
          0.717873693, 0.018573096, 0.159813344, 0.269574553,
          -0.219210014, 0.398683935, -0.162521362, -0.0245250706,
          -0.203247517, -0.0587542392 ]
      - [ -0.160084099, -0.0138913598, 0.00155107758, 0.0608775169,
          0.648868203, -0.0887316391, -0.0887316391, -0.055782076,
          -0.0553636216, -0.0887316391, -0.0887316391, -0.0178422779,
          -0.049802281, -0.0887316391, -0.0887316391, 0.0825053081,
          0.795520902, -0.0887316391, -0.0887316391, -0.00700961007,
          -0.151402891, -0.153918892, -0.21437344, -0.0449389219,
          -0.258913934, -0.0823900029, -0.67828393, 0.0279139765,
          0.533743441, -0.021794986, -0.0494450144, -0.0690748766,
          -0.588065445, -0.0690194368, -0.674411774, 0.0556002706,
          1.01961803, 0.00913497154, 0.197558478, -0.00372374011,
          -0.15132454, -0.0160497613, -0.29498136, 0.0693670809,
          1.01941895, 0.0331644155, 0.27533862, 0.043455679, 0.149946138,
          0.00803006906, -0.271611959, 0.0322306156, 0.524374247,
          0.0327193066, 0.170580223, 0.0105361836, -0.276557148,
          -0.00892423652, -0.298107088, -0.00993043091, 0.13989827,
          0.0226387549, 0.110864162, -0.0910936818, -0.655871332,
          -0.060505528, -0.427205503, 0.00387046556, 0.520907879,
          0.0128137767, 0.172742918, -0.0468905903, -0.106120273,
          -0.0768294111, -0.358294189, 0.0131136738, 0.515847027,
          0.00300064986, 0.15990895, -0.02525663, 0.109495617,
          -0.0750624835, -0.435000479, 0.0250746515, 0.350817293,
          -0.0203096457, -0.12773627, -0.215139046, -0.0647478551,
          0.436268926, 0.098922655, -0.0104724178, -0.208609164,
          -0.0362234339 ]
      - [ -0.266581804, 0.327740878, -0.344870478, 0.417221636,
          0.263845325, -0.137822449, -0.137822449, -0.128336221,
          -0.11725916, -0.137822449, -0.137822449, -0.127432778,
          -0.148864284, -0.137822449, -0.137822449, 0.119324431,
          0.601420939, -0.137822449, -0.137822449, 0.138396442,
          0.643619418, -0.137822449, -0.137822449, -0.0935770646,
          0.0703738332, -0.143807724, -0.472685337, 0.0803255066,
          0.225891724, -0.0167248324, 0.19277823, -0.115073964,
          -0.156406268, -0.170245439, -0.602496922, 0.119275697,
          0.628645062, 0.00505689811, 0.521783173, -0.168120056,
          -0.47155565, -0.160822168, -0.521496534, 0.100487351,
          0.776061237, -0.0137631074, 0.424785137, -0.0709613338,
          0.110968664, -0.104053147, -0.261077791, 0.0414313301,
          0.257885337, -0.0229601804, 0.103986651, -0.0126580577,
          0.149916351, -0.0619237982, -0.322080553, 0.0416277461,
          0.096609056, -0.0103789531, 0.0784180909, -0.0711330846,
          -0.456368178, -0.0650754273, -0.568074167, 0.0710536689,
          0.470671147, 0.0107699409, 0.255490899, -0.0797192007,
          -0.249694809, -0.0843017176, -0.335470229, 0.0754597411,
          0.474990129, 0.0204118881, 0.405402422, -0.105955176,
          -0.0882683173, -0.104452707, -0.171081483, 0.0633300468,
          0.250404686, -0.00106745132, 0.229240283, -0.494487256,
          0.0758138597, 0.233616278, 0.223419547, -0.0598744452,
          0.1789103, -0.157398 ]
      - [ -0.0187414326, 0.20770745, -0.1192571, 0.548104823,
          -0.0620565377, -0.166226149, -0.166226149, -0.147362858,
          -0.533929527, -0.166226149, -0.166226149, -0.145566359,
          -0.47516951, -0.166226149, -0.166226149, 0.208575577,
          0.543287933, -0.166226149, -0.166226149, 0.238556683,
          1.41811156, -0.166226149, -0.166226149, 0.034873873,
          -0.0650892258, 0.0169294998, -0.334548831, 0.198758215,
          0.768515587, 0.0684242249, -0.140532285, 0.0737333372,
          0.0376382619, 0.0383701548, -0.54187268, 0.234638453,
          0.889264762, 0.0895656273, -0.0383662321, 0.028344404,
          -0.358175159, 0.0127873952, -0.408106178, 0.19984439,
          0.825154603, 0.0820382237, 0.121353008, -0.0464312211,
          -0.439012289, -0.0445911214, -0.341772854, 0.117123775,
          0.524663746, 0.0409646332, 0.114876233, -0.0582365915,
          -0.019741198, -0.0757922083, -0.443369448, 0.0580924004,
          0.266070366, 0.00708837761, -0.0720956996, -0.0675591603,
          -0.393535137, -0.0788185969, -0.555552244, 0.0895579532,
          0.346297592, 0.0141754374, -0.138217673, -0.0186823811,
          -0.262231052, -0.0556995794, -0.645827353, 0.138945237,
          0.469492733, 0.0411296636, -0.118125997, -0.00848605949,
          -0.266223699, -0.00106477912, -0.344655812, 0.152581066,
          0.452511191, 0.0497990921, -0.221189767, -0.160031959,
          -0.0523230024, 0.132956013, 0.0951848999, 0.0514694639,
          0.0615403764, -0.128795952 ]
      - [ -0.411784351, 0.623457253, 0.102297008, -1.10512877,
          1.16618407, 0.0159697924, 0.0159697924, -0.00152559543,
          -0.133815214, 0.0159697924, 0.0159697924, 0.498388678,
          0.0155504281, 0.0159697924, 0.0159697924, 0.714189112,
          -0.172529936, 0.0159697924, 0.0159697924, -0.804221213,
          -0.650760114, 0.0159697924, 0.0159697924, 0.353794634,
          0.212524042, 0.380443245, -0.263143182, -0.482339233,
          -0.849566102, 0.0163843725, -0.765607953, 0.35504669,
          0.32235238, 0.405379623, -0.0176868923, -0.459493756,
          -0.540706038, 0.0365839936, -0.497540891, 0.329874814,
          0.0926582664, 0.413577437, 0.427306235, -0.414527923,
          -0.237089649, 0.0538345091, -0.230036467, 0.321911722,
          0.0360883661, 0.358595103, 0.0823501498, -0.317561269,
          0.0350914374, 0.0461879, -0.15642482, 0.349662334, 0.517358243,
          0.331484169, -0.158737794, -0.292443752, 0.2749497,
          0.0520916581, -0.0996425897, 0.167705134, -0.653490126,
          0.291330546, -0.179926515, -0.22274597, 0.605262935,
          0.0694481283, 0.0134917451, 0.314175278, 0.302637786,
          0.293765366, -0.126487881, -0.269145489, 0.0956192166,
          0.0716546178, -0.0710741803, 0.353997707, 0.327627838,
          0.365613818, 0.00691488665, -0.426099271, -0.717567503,
          0.0233106427, -0.659001052, 0.775047958, 0.379143298,
          0.631174445, -0.446770996, 0.0270567872, -1.17528343,
          -0.190368593 ]
      - [ -0.332859784, 0.126130328, -0.532421947, 0.395862162,
          0.594239831, -0.0368102081, -0.0368102081, -0.0368102081,
          -0.331739783, -0.0368102081, -0.0368102081, -0.0368102081,
          -0.47837922, -0.0368102081, -0.0368102081, 0.128683895,
          0.400400251, -0.0368102081, -0.0368102081, 0.266390622,
          0.2054158, -0.0368102081, -0.0368102081, -0.02617383,
          -0.0751773566, -0.0546801724, -0.601769924, 0.138136327,
          0.391762733, 0.0165072847, -0.039069254, -0.0500488691,
          -0.483158857, -0.0399424583, -0.595750272, 0.130824178,
          0.525527, 0.0191810373, -0.0548441447, -0.0381729342,
          -0.452477038, -0.00546929752, -0.35228315, 0.152490735,
          0.811691463, 0.0409793742, 0.1289967, 0.0375715084,
          0.157973632, -0.0119251888, -0.331463873, 0.16357927,
          0.708661735, 0.0498726778, 0.265111148, -0.0485274754,
          -0.330764681, -0.0192477778, -0.293055296, 0.115700833,
          0.383369923, 0.0267752148, -0.0159571357, -0.0627589822,
          -0.517491817, -0.0384220816, -0.291481853, 0.102635846,
          0.43479079, 0.0112672551, -0.0387859344, -0.0564124249,
          -0.271150798, -0.0579113588, -0.31538102, 0.137027934,
          0.588124394, 0.0163259022, 0.105941541, -0.074993521,
          -0.286134064, -0.0447303466, -0.208402485, 0.139156878,
          0.509817719, 0.0112500582, -0.137034804, -0.522730649,
          0.324456036, 0.0771842822, 0.297137678, -0.0709910095,
          -0.0240972359, -0.0809591636 ]
      - [ 0.189234987, 0.0565465391, 0.124495074, -1.21874881,
          1.62413561, -0.117194816, -0.117194816, 0.0920747593,
          0.038340956, -0.117194816, -0.117194816, 0.724120557,
          0.180526018, -0.117194816, -0.117194816, 0.255149543,
          -0.262708008, -0.117194816, -0.117194816, 0.221443743,
          -0.847545087, -0.122312076, -0.117194816, 0.206431478,
          0.299365014, 0.212655187, -0.866449535, -0.537094116,
          -0.0446285419, -0.10454385, 0.0484278239, 0.269952863,
          0.488225609, 0.27701512, -0.224685699, -0.608866572,
          0.0221342668, -0.121303335, -0.037467178, 0.233134806,
          0.502435386, 0.363582909, 0.0367808193, -0.683754444,
          0.265889943, -0.147029474, -0.210654572, 0.296435505,
          0.487092435, 0.425569266, -0.0433641337, -0.629829228,
          0.388877958, -0.0761788934, 0.145286456, 0.422563374,
          0.654583871, 0.544278145, 0.645083904, -0.635333776,
          0.127859786, -0.0166121088, 0.205758154, 0.265938103,
          -0.0179855116, 0.446850032, -0.0225653946, -0.663324952,
          0.168011859, -0.110403545, -0.200417772, 0.210617378,
          0.363554239, 0.314183563, -0.118968241, -0.732285142,
          -0.546581924, -0.122469068, -0.147745624, 0.0985205024,
          -0.468164682, 0.246226475, -0.487583846, -0.618013322,
          -0.278671116, -0.094795011, -0.0655512735, 0.868139327,
          -1.5622381, 0.818039238, 0.665217459, 0.265953541, -0.72487098,
          -0.330240071 ]
      - [ 0.297300398, 0.268128484, -0.126406536, 0.968345106,
          1.04614401, -0.0180849265, -0.0129376007, -0.0427122824,
          -0.157711759, -0.0129376007, -0.0129376007, -0.183191061,
          -0.722749949, -0.0129376007, -0.0129376007, 0.401045412,
          -0.219675571, -0.0129376007, -0.0129376007, -0.650343418,
          -0.616556525, -0.0808288977, -0.0721390098, 0.0285890233,
          -0.0257458761, 0.0368045568, -0.0189647954, -0.0963498503,
          -0.369489491, -0.0322453976, -0.244152933, 0.0173017941,
          -0.036684189, 0.0809416175, 0.181236833, -0.0918086395,
          -0.186330348, -0.00116384099, -0.0782924891, 0.100869097,
          0.154482946, 0.153940722, 0.319747895, -0.0830159783,
          -0.0190507937, 0.0327566564, 0.0388722382, 0.201904491,
          0.29402104, 0.214912102, 0.289003164, -0.0532861836,
          0.0694760233, 0.060508471, 0.0653037876, 0.185116395,
          0.199474424, 0.215829179, 0.0897710621, -0.0383634754,
          0.122035965, 0.0703415051, 0.0527513474, 0.0607383214,
          -0.31243977, 0.121472642, -0.0800168961, -0.0277023744,
          0.161108434, 0.046942763, 0.0156868529, 0.0147954244,
          -0.318491578, 0.0466990396, -0.194936454, -0.0699397326,
          -0.167650551, 0.00737952674, -0.0930669159, 0.0240899827,
          -0.138875082, 0.02929735, -0.163898379, -0.100717969,
          -0.405530661, -0.0349800624, -0.32101211, 0.117826059,
          0.28614375, 0.427080274, -0.125772893, 0.275903672,
          -0.583591282, -0.397589713 ]
      - [ 0.330483049, 0.682586968, -0.228968531, 0.718669653,
          1.01191974, -0.00459817192, -0.00459817192, 0.375327617,
          -0.107115716, -0.00459817192, -0.00459817192, -0.0741846487,
          -0.782077789, -0.00459817192, -0.00459817192, -0.295350343,
          1.21599054, -0.00459817192, -0.00459817192, -0.562838256,
          -1.4132539, -0.101576142, -0.732826889, -0.0232072547,
          -0.675276816, 0.00158166606, -0.712856233, -0.123896316,
          -0.609103382, -0.068375878, -0.26745978, -0.0795155168,
          -0.869206369, -0.0245397761, -0.491825759, -0.121184833,
          -0.261806369, -0.0718254372, -0.107414156, 0.0637129843,
          0.190963462, 0.109168492, 0.28486535, -0.0602330267,
          0.132513553, -0.0069089327, 0.101358376, 0.264435351,
          0.780653119, 0.221030489, 0.0443147607, -0.0348173045,
          0.14952144, 0.0360266343, 0.0874693021, 0.279399186,
          -0.0978385136, 0.262621403, -0.611922622, -0.137735352,
          -0.0436257124, 0.0403367579, 0.105662458, 0.155435756,
          -0.448379397, 0.216204092, -0.249948695, -0.164243221,
          0.078937009, 0.0328574143, 0.183265761, 0.152326256,
          0.746500671, 0.155625522, 0.268957376, -0.06658189,
          0.117997572, 0.0379434302, 0.277927339, 0.147261873,
          0.791777194, 0.0859442651, -0.145964175, -0.0275691357,
          0.0268120188, -0.0121142734, -0.0160342865, 0.780210793,
          -0.124221295, 0.0217556693, -0.080396235, -0.0975700393,
          -0.250076205, -0.249702722 ]
      - [ 0.100734539, 0.165248781, -0.271648675, 0.0329022072,
          0.127265379, 0.0215987731, 0.00129523769, 0.000970570545,
          0.0144209806, 0.00129523769, 0.00129523769, 0.000841402332,
          0.028930705, 0.00129523769, 0.00129523769, -0.00872325059,
          -0.0136677343, 0.00129523769, 0.00129523769, -0.0663947836,
          -0.144136071, 0.00129523769, 0.00129523769, 0.00865809619,
          0.0905753374, 0.00680949306, 0.0233234428, -0.033751078,
          -0.0203672927, -0.00874512363, -0.0100818267, 0.000347085675,
          -0.00809127651, 0.00370686245, -0.0171026736, -0.0406356119,
          -0.0617603324, -0.0112664709, -0.0252686124, 0.00131100684,
          0.043625135, 0.000722923316, -0.0179658793, -0.0368933603,
          -0.04285115, -0.0114268651, -0.0110761672, 0.00363218272,
          0.105961204, 0.000291775272, 0.0215288978, -0.0290593915,
          -0.00978967641, -0.00965704489, 0.00461257575, 0.000711772882,
          0.0690352991, -0.000264063914, 0.0388181694, -0.0306202155,
          -0.0294583086, -0.00980761554, 0.0057271719, -0.003889977,
          0.0235918667, -0.00218482059, 0.00759431534, -0.0359752961,
          -0.0531220213, -0.0121530332, -0.00659305928, -0.00145955256,
          0.0378019772, 0.00112429087, 0.0162851885, -0.0344693884,
          -0.0322720408, -0.0107276142, -0.00567517243, 0.00894028787,
          0.133023411, 0.0062070149, 0.0426823236, -0.0294435304,
          0.00178678415, -0.00786665827, 0.00333631504, 0.571211338,
          -0.17335999, -0.134290382, -0.100955643, -0.00857642293,
          -0.0728103444, -0.0812185556 ]
      - [ 0.168099716, 0.170474976, -0.0751202181, 0.0268426165,
          0.0560574606, 0.0103836367, -0.00144244591, -0.00144244591,
          -0.105925918, -0.00144244591, -0.00144244591, -0.00144244591,
          -0.247480586, -0.00144244591, -0.00144244591, -0.00144244591,
          0.00650364859, -0.00144244591, -0.00144244591, 0.000279447995,
          0.00719451625, -0.00144244591, -0.00144244591, -0.00313310674,
          0.0424975418, -0.00643464783, -0.0136489822, -0.00613400852,
          0.0357189253, -0.0066553643, 0.00233149854, -0.00392017188,
          0.0485284775, -0.00538904592, 0.00925778039, -0.00812795386,
          0.0213134456, -0.00700626289, -0.00441906136, -0.00483913487,
          0.050496053, -0.00547318999, 0.03038943, -0.00810651109,
          0.0322036333, -0.00716726016, 0.00320484862, -0.00459494162,
          0.0606244765, -0.00805391744, 0.00849461555, -0.00667203544,
          0.039040383, -0.00689880131, 0.025776431, -0.00953648239,
          -0.00172810676, -0.00885969587, 0.00289613288, -0.00849971827,
          0.0138949929, -0.00784901343, -0.00515909772, -0.00897666812,
          -0.00457811169, -0.00989079662, -0.0351503529, -0.0107432762,
          -0.0224328954, -0.00919917971, -0.02670376, -0.0064175236,
          0.00144191261, -0.00951424055, -0.0489583537, -0.00901297294,
          -0.00440785568, -0.00920592062, -0.0286664627, -0.00593712181,
          0.00465182913, -0.00713436073, -0.0187305342, -0.00651366403,
          0.0326216705, -0.0075453599, -0.0173581578, 0.286052704,
          0.0165804345, -0.00807617977, -0.00450378284, -0.282003701,
          -0.00652036164, -0.00152910326 ]
      - [ 0.271148354, 0.348285496, -0.417634726, 0.00599850481,
          0.324125081, 0.155555502, 0.14558503, -0.00895719789,
          -0.514588892, -0.00895719789, -0.00895719789, -0.00895719789,
          -0.281959087, -0.00895719789, -0.00895719789, -0.00895719789,
          0.0324392319, -0.00895719789, -0.00895719789, -0.00533654727,
          0.0349110328, -0.00895719789, -0.00895719789, 0.00912761409,
          0.0500099398, 0.00840802584, -0.00646037189, -0.00986380037,
          0.0392286889, 0.0075634825, 0.0435059853, 0.000282585592,
          -0.0786918849, 0.00893488619, -0.0461061485, -0.0177882388,
          0.0240600798, 0.00804355554, 0.0458870493, 0.00465526059,
          -0.00686005317, 0.00658281939, -0.08981435, -0.0185288414,
          0.0390502028, 0.00726054562, 0.0705615506, 0.00521672191,
          -0.00457930705, 0.00597677473, -0.0925260037, -0.00937948003,
          0.0854318812, 0.00893506501, 0.0569894612, 0.00201198948,
          -0.074731335, 0.00106027699, -0.12850976, -0.00355866109,
          0.0919851214, 0.00835693069, 0.0616418049, -0.00430414407,
          -0.0744545683, -0.00964664202, -0.199395373, -0.00813885871,
          0.0866661072, 0.00466777105, 0.0652433261, -0.00982949883,
          -0.106128864, -0.00619810401, -0.12410035, -0.011421374,
          0.0584011152, 0.00381075521, 0.0602519922, 0.00599891832,
          0.0709496289, -0.000398309319, -0.0653292537, -0.00546406396,
          0.0898559466, 0.00656027347, 0.0590335056, 0.601359129,
          -0.373171329, -0.0322260968, -0.0453266278, -0.0828928053,
          -0.0827345029, 0.0149922436 ]
      - [ 0.36163649, 0.323273569, 0.638187826, 0.335230023, 0.542182744,
          -0.00853444543, -0.082372807, -0.0462555066, -0.105511874,
          -0.131894678, -0.131894678, -0.103348278, -0.0744732767,
          -0.131894678, -0.131894678, -0.103348278, -0.0915445015,
          -0.131894678, -0.131894678, -0.0131195271, -0.27873072,
          -0.265583813, -0.236320123, -0.0177425724, -0.62346971,
          -0.0128899822, -0.339906394, 0.0947908834, 0.52220583,
          0.0338757709, 0.0978926867, -0.000904925517, -0.457339287,
          -0.00536923623, -0.33921054, 0.104365453, 0.565728188,
          0.040537633, 0.0466328822, 0.0176916644, -0.31853345,
          0.00461155409, -0.364879131, 0.110402644, 0.573955178,
          0.0470173135, 0.104746141, 0.000984324375, -0.64327383,
          0.00508350879, -0.459067017, 0.0960266516, 0.512350619,
          0.0500727482, 0.12699914, 0.00050145312, -0.743482292,
          0.0187109876, -0.260978311, 0.0698586777, 0.204442561,
          0.0474663116, 0.0885396376, 0.00516769057, -0.552688539,
          0.0177054368, -0.166315377, 0.0739544854, 0.30954212,
          0.04720328, 0.138126627, 0.0207930803, -0.0912670195,
          0.0206294451, 0.109767333, 0.0852346867, 0.37258932,
          0.0493580252, 0.225751311, 0.00513478555, -0.33339265,
          0.00595098315, -0.0304438211, 0.0842252895, 0.326788127,
          0.0454615317, 0.232280657, 0.716190934, -0.125574827,
          -0.607147455, -0.105008721, -0.327049524, 0.228857845,
          0.219731778 ]
      - [ -0.164118588, 0.165236935, -0.763111711, 0.0749748796,
          0.359889358, 0.127377987, 0.123884447, 0.0697345659,
          -0.664453387, 0.0697345659, 0.0697345659, 0.0697345659,
          -0.771585941, 0.0697345659, 0.0697345659, 0.0697345659,
          0.321908474, 0.0697345659, 0.0697345659, 0.0816102624,
          0.341306478, 0.0697345659, 0.0697345659, -0.0108682625,
          0.163979992, -0.0108680027, 0.0927690119, -0.0333927944,
          0.136497468, -0.00503193308, 0.199597478, -0.0360492393,
          -0.0635106638, -0.0188695919, 0.0727971643, -0.0711400658,
          -0.160355955, -0.0194108356, 0.0384315141, -0.0407552794,
          -0.107580587, -0.0227853842, -0.0621115975, -0.0650954768,
          -0.155457512, -0.0133611467, 0.0964743569, -0.0289632771,
          -0.052715376, -0.0251407512, -0.193235219, -0.0250267461,
          0.216198459, -0.00390443951, 0.210166529, -0.0258982163,
          -0.122113578, -0.0186206196, -0.104539596, -0.0386589132,
          0.0726880953, 0.00138732162, 0.263263822, -0.0408509746,
          -0.276851147, -0.0168331452, -0.0586034358, -0.0754741132,
          -0.181365788, -0.00793240033, 0.148586378, -0.0360482894,
          -0.223670259, -0.0152065279, -0.114184968, -0.0623833388,
          0.0107453195, -0.0145168696, 0.113092989, -0.00574329356,
          0.226951063, -0.00235768897, 0.103692897, -0.026757462,
          0.179545254, 0.0117448801, 0.335631013, 0.588916779,
          -0.451820523, 0.0182410814, 0.0146753723, -0.158901647,
          -0.00642980589, -0.00468116626 ]
      - [ 0.48870483, 0.487516582, 0.203081831, 0.005878489,
          -0.011485992, 0.115900293, 0.100108735, -0.0242626276,
          -1.00352132, -0.0242626276, -0.0242626276, -0.0242626276,
          -0.670183003, -0.0242626276, -0.0242626276, -0.0242626276,
          0.306066334, -0.0242626276, -0.0242626276, -0.0238675755,
          0.268689334, -0.0242626276, -0.0242626276, 0.0161505416,
          0.0588232093, -0.00578453625, -0.153001755, 0.0166264325,
          0.129660785, 0.00917474274, 0.028881846, 0.00855835527,
          -0.125134185, 0.00300220167, -0.0628627837, -0.0107518332,
          -0.087519981, 0.00483867386, -0.0645744205, 0.0252962355,
          0.101041108, 0.00922358502, 0.01305361, -0.0101872357,
          -0.108955316, 0.00925177243, -0.0222335812, 0.0297703445,
          0.18775329, 0.00936594512, 0.0528200157, 0.00321325543,
          0.0460956693, 0.0152609898, 0.0581332222, 0.0159670524,
          0.0881436914, 0.00526524941, 0.0616090111, -0.00700534414,
          -0.0609230101, 0.010391756, 0.0278561339, 0.00748413755,
          -0.033716619, -0.00445630122, -0.0374219716, -0.0176452883,
          -0.156814039, 0.00030672978, -0.062756829, 0.00668563135,
          -0.0730171725, -0.00938897766, -0.153841972, 0.0128539931,
          -0.0070643276, 0.000916619378, -0.0632763058, 0.0201033764,
          0.106950454, -0.00909831654, -0.198325977, 0.0353768766,
          0.205932453, 0.0166765302, 0.0872428566, 0.681689918,
          0.244298831, -0.180298388, -0.231839076, -0.107197575,
          -0.33612904, -0.0705247298 ]
      - [ 0.0117561929, 0.19132787, 0.00811969489, -0.12326318,
          0.0607008711, 0.0668430775, 0.00811969489, 0.0014772804,
          0.01148789, 0.00811969489, 0.00811969489, 0.00671649957,
          0.0250961278, 0.00811969489, 0.00811969489, -0.025235923,
          -0.0638856664, 0.00811969489, 0.00811969489, -0.0959200785,
          -0.148297966, 0.00811969489, 0.00811969489, 0.0179590974,
          0.0899459869, 0.0187833868, 0.0304158945, -0.0574589223,
          -0.0127139902, -0.0170118641, 0.00097196165, 0.0154419942,
          0.0630007833, 0.0186303984, 0.0418886021, -0.0605811886,
          -0.048792623, -0.0206024032, -0.0240258686, 0.0126862563,
          0.0932856873, 0.0148160756, 0.0453096516, -0.0616009049,
          -0.060015142, -0.0237955749, -0.0291974209, 0.00854135491,
          0.0900494531, 0.00947648846, 0.0335609429, -0.057870388,
          -0.0356650017, -0.0251122545, -0.0213315263, 0.00633251434,
          0.0412963666, 0.00889730733, 0.0274541322, -0.0569270402,
          -0.0366880335, -0.0242922194, -0.0162514579, 0.00770777045,
          0.046461083, 0.00880628172, 4.44044417e-05, -0.0544329658,
          -0.0401093289, -0.0229898095, -0.0194899924, 0.0106241871,
          0.0551997982, 0.0117484704, 0.00140903331, -0.0532858334,
          -0.0195601974, -0.019473603, -0.00847250689, 0.0157547742,
          0.0966291651, 0.015980253, 0.0226603653, -0.0531609282,
          0.00717563927, -0.0164001714, 0.00836360082, 0.507462263,
          -0.113536403, -0.132621676, -0.129682615, 0.00900584087,
          -0.117530987, -0.0230964031 ]
      - [ -0.359605998, 0.218561128, -0.576661646, 0.00216373289,
          0.656316221, 0.176548168, 0.111045182, -0.0169410221,
          -0.0169410221, -0.0169410221, -0.0169410221, -0.0169410221,
          -0.0169410221, -0.0169410221, -0.0169410221, -0.0169410221,
          -0.0169410221, -0.0169410221, -0.0169410221, 0.0257484298,
          -0.0169410221, -0.0169410221, -0.0169410221, -0.0316024832,
          0.321436524, -0.0772371516, 0.413197428, 0.120192148,
          0.198704556, 0.00942073017, 0.0136309145, -0.047939267,
          -0.15507251, -0.087914221, 0.051230453, 0.0898611769,
          -0.0641738549, -0.000322919106, -0.113060974, -0.0461286716,
          -0.303164303, -0.0894419774, -0.144232616, 0.100628451,
          0.0323590823, 0.00725317001, 0.0215335898, -0.0172251929,
          -0.102341466, -0.0844266042, -0.323398054, 0.143571094,
          0.71621573, 0.024173772, 0.234641761, -0.0300333556,
          -0.582647562, -0.0772938728, -0.57901001, 0.128838286,
          0.561702192, 0.0262497775, 0.259954453, -0.0429413691,
          -1.02102661, -0.0819774047, -0.791474164, 0.0898776427,
          0.149062723, 0.0133952275, 0.143117949, -0.0419332497,
          -0.456796825, -0.0733601227, -0.277684778, 0.0937936157,
          0.337516814, 0.010020473, 0.1142115, -0.0130139571,
          0.276330382, -0.0667682514, 0.333868891, 0.129126206,
          0.503914416, 0.0163949467, 0.138217673, 0.753985345,
          -0.73389262, -0.232267216, 0.187259883, -0.25459525,
          0.248661995, 0.0308475345 ]
      - [ -0.00558655756, 0.130523503, 0.0125969434, -0.0337720923,
          0.0250273142, 0.0200212076, 0.0111308694, 0.00972554553,
          0.016043881, 0.0111308694, 0.0111308694, 0.00859540515,
          0.0198835693, 0.0111308694, 0.0111308694, -0.0271581002,
          -0.0426140763, 0.0111308694, 0.0111308694, -0.129077584,
          -0.104386888, 0.0111308694, 0.0111308694, 0.00804728828,
          0.178543925, 0.0033697153, 0.0642320588, -0.0879268721,
          -0.00192101684, -0.0710559189, -0.0980496854, 0.00465440424,
          0.157044023, 0.000984734856, 0.0447992161, -0.0930053741,
          -0.0268575177, -0.0723785311, -0.0975559577, -0.00327042211,
          0.10999167, 9.43505074e-05, 0.0446089357, -0.0972123817,
          -0.0336511917, -0.0729286298, -0.0830136612, 0.00516787404,
          0.221648127, 0.00348143652, 0.101517953, -0.094627507,
          -0.0244760737, -0.0709247664, -0.0631227121, 0.0127687501,
          0.250236094, 0.00950101856, 0.153631419, -0.0930156112,
          -0.0304197967, -0.0683111474, -0.0590910055, 0.00550903194,
          0.170153558, 0.00620521698, 0.0978896469, -0.0941250399,
          -0.0265555251, -0.0694240406, -0.0676316321, 0.00178264175,
          0.136389837, 0.0023134416, 0.0451871604, -0.0929637328,
          -0.001829013, -0.0701249391, -0.0707218572, 0.0029994112,
          0.157736033, 0.00318366475, 0.0649747998, -0.0883693025,
          0.0134882424, -0.0701498538, -0.0874248892, 0.503926396,
          -0.102669492, -0.15284282, -0.116378039, 0.0494005382,
          -0.0932519883, -0.0881846249 ]
      - [ 0.132059321, 0.170031518, -0.1655792, 0.00608016457,
          0.0348678604, 0.0300862323, 0.0350151397, 0.0283226687,
          0.0240503494, 0.0294495411, 0.0294495411, 0.0168008879,
          -0.014242257, 0.0294495411, 0.0294495411, -0.0422314703,
          -0.0518639944, 0.0294495411, 0.0294495411, -0.0608065054,
          -0.155952632, -0.0850349441, -0.0783004016, 0.00891799107,
          0.0535427928, 0.00751708681, -0.00586834596, -0.044017531,
          -0.0132692847, -0.0236620456, -0.0220161751, 0.00771033484,
          0.0435011983, 0.00898891222, -0.000645746884, -0.046903301,
          -0.032162264, -0.0226765238, -0.0184073448, 0.00825357158,
          0.0580249205, 0.0106525095, 0.017780276, -0.0488103926,
          -0.0295304749, -0.0218010694, -0.00411254773, 0.0131100016,
          0.116547063, 0.0127590941, 0.0494033918, -0.0464630127,
          -0.0154644428, -0.0200572331, 0.00874310918, 0.0141436318,
          0.102204256, 0.0131106917, 0.0534801148, -0.0438962243,
          -0.0136896409, -0.0186364613, 0.0161671415, 0.00856846012,
          0.0557423607, 0.00785303675, 0.00221637054, -0.0433230586,
          -0.011991973, -0.0211855955, 0.00166311034, 0.00326105114,
          0.0124270068, 0.00530770421, -0.0201669484, -0.045075357,
          -0.0176355317, -0.0236066915, -0.0126935588, 0.00719403569,
          0.0563138686, 0.00566475932, -0.0109008793, -0.0434270613,
          -0.00449580792, -0.0243467595, -0.0198305845, 0.482672721,
          -0.0439181812, -0.0762089714, -0.0723541602, -0.00969582517,
          -0.071941182, -0.208554432 ]
      - [ 0.0586341955, 0.12978746, -0.0582099184, 0.0206204224,
          0.127439946, 0.0249035824, 0.0161453597, 0.0119147068,
          0.0252628345, 0.0161453597, 0.0161453597, -0.0132263545,
          0.0139869405, 0.0161453597, 0.0161453597, 0.00126996788,
          0.00902818143, 0.0161453597, 0.0161453597, -0.108712576,
          -0.180877864, -0.0081023071, -0.166736752, 0.00159984455,
          0.066490382, 0.000834665087, 0.0307496395, -0.0347474068,
          0.00774252042, -0.0242206175, -0.00298590236, -0.00306349061,
          0.0299577862, -0.00194686861, 0.0188318789, -0.0390191413,
          -0.0296922587, -0.0272000171, -0.0298248604, -0.00272655138,
          0.0610281453, -0.00405987911, 0.00170174043, -0.0373683907,
          -0.0271251332, -0.0268280599, -0.0221924782, -0.00342682842,
          0.0538027957, -0.00499792956, -0.0072845039, -0.0357299633,
          -0.0117155574, -0.0261966418, -0.0153739555, -0.00360396085,
          0.0241978224, -0.00251767063, 0.0109681468, -0.0405691415,
          -0.0404374041, -0.0267740283, -0.0209179185, -0.000114233924,
          0.0640532225, -0.000509051199, 0.0261216164, -0.0414224714,
          -0.0430897959, -0.0270571187, -0.0255050585, 0.00318583916,
          0.0986276641, 0.0025815051, 0.0455189981, -0.0335676223,
          0.0106731849, -0.0234770868, -1.36785529e-05, 0.00503072096,
          0.118179575, 0.0028518457, 0.0437285192, -0.0288362354,
          0.0494097397, -0.0213801991, 0.0196512844, 0.49679336,
          -0.136143312, -0.183026105, -0.0859564096, -0.106537662,
          -0.00678040134, 0.0216504913 ]
      - [ 0.214973569, -0.0557325184, -0.105360813, 0.115978844,
          0.0685685873, -0.0136393979, -0.0136393979, -0.0136393979,
          -0.315797597, -0.0136393979, -0.0136393979, -0.0136393979,
          -0.397056013, -0.0136393979, -0.0136393979, 0.0923798382,
          -0.181148693, -0.0136393979, -0.0136393979, 0.268035114,
          0.464160323, -0.0189672802, -0.0136393979, -0.0718676746,
          0.0541680418, -0.0952295437, -0.246429205, 0.0507170558,
          0.300058186, -0.025857022, 0.166834995, -0.071985662,
          0.198756531, -0.0934635848, -0.0359009206, 0.0635937676,
          0.327480704, -0.0255549178, 0.113916308, -0.0864535496,
          0.0327998474, -0.0969166383, -0.0131942891, 0.0588270985,
          0.324219197, -0.0308680572, 0.0824481025, -0.0929155424,
          -0.182628438, -0.105682693, -0.182441518, 0.0424432568,
          0.234941989, -0.0349024311, 0.170229018, -0.0976198688,
          -0.236089438, -0.0921237767, -0.125566736, 0.0299373548,
          0.122773349, -0.0346723422, -0.00312294345, -0.0563609749,
          0.156327054, -0.0752750561, -0.090383403, 0.0348921679,
          0.0548548624, -0.0284242164, -0.0254708342, -0.050377652,
          0.00667708088, -0.0735548958, -0.176034868, 0.0393620953,
          0.177424401, -0.0259360913, 0.0631295815, -0.0756023824,
          -0.24170047, -0.0793792531, -0.190971598, 0.0361265242,
          0.278603673, -0.026632363, 0.0760485381, 0.261761904,
          -0.123372138, 0.0256039891, 0.0400752984, -0.248507395,
          -0.0527891703, 0.0972274691 ]
      - [ 0.233278945, -0.0520452335, -0.0188890994, -0.282595724,
          0.0474087335, 0.000181156836, 0.000181156836, -0.0985293388,
          -0.254449785, 0.000181156836, 0.000181156836, -0.0938342661,
          -0.496778727, 0.000181156836, 0.000181156836, 0.0959437788,
          0.115309596, 0.000181156836, 0.000181156836, 0.253862917,
          0.549506485, 0.000181156836, 0.000181156836, 0.0770798549,
          -0.150813594, 0.0464799777, -0.649645686, 0.0218641516,
          0.519882917, 0.0736512467, 0.155210316, 0.0343176797,
          -0.29906708, 0.0274368301, -0.541368484, -0.00427842885,
          0.399415612, 0.0512889586, 0.0986524299, 0.0262887068,
          -0.0877639353, 0.0137171689, -0.400289923, -0.0391016975,
          0.313966423, 0.0257167108, 0.0318101831, 0.0105502913,
          -0.0781504884, 0.0101209106, -0.33289519, -0.0552019477,
          0.275440603, 0.0209983159, 0.0249828584, 0.0153886704,
          -0.284131914, 0.0206376743, -0.383296698, -0.0533204153,
          0.362287432, 0.0342790931, 0.134022102, 0.0592845157,
          -0.203251362, 0.0416819118, -0.456383675, -0.0172945112,
          0.636715293, 0.0383901335, 0.0974031016, 0.0728927031,
          -0.26120162, 0.0645742863, -0.567064524, 0.0189285241,
          0.671025872, 0.0460233614, -0.0862247348, 0.0958811939,
          -0.0591544919, 0.0697520748, -0.527329147, 0.0367909931,
          0.611370921, 0.0746863484, 0.0763416365, 0.0682543591,
          0.0562338755, 0.209262386, -0.0439101011, -0.0526985638,
          -0.241020992, 0.00387908751 ]
      - [ 0.122062311, -0.187686652, -0.060396485, 0.145265311,
          0.0986366272, -0.0488200709, -0.0488200709, -0.0480656922,
          -0.0473113023, -0.0488200709, -0.0488200709, -0.0450481512,
          -0.0465569198, -0.0488200709, -0.0488200709, 0.0903961584,
          0.230654821, -0.0488200709, -0.0488200709, 0.342059731,
          -0.0608521365, -0.0750508383, -0.0675458014, -0.0684444159,
          -0.130756438, -0.102590889, -0.632922173, 0.0197490472,
          0.376539946, -0.0182727817, 0.182562768, -0.0651894361,
          -0.2744115, -0.0779541954, -0.361408472, 0.0497682281,
          0.614126801, -0.00526689831, 0.247614712, -0.0361586772,
          0.0105378442, -0.0586757921, -0.240711451, 0.067256622,
          0.600156665, -0.00309703476, 0.144241542, -0.0290291272,
          0.122143157, -0.0660361946, -0.351240307, 0.0400906764,
          0.421752334, -0.00923257507, 0.11408639, -0.0917666256,
          -0.522063673, -0.0783688873, -0.363918781, 0.0196120441,
          0.415035278, -0.0194530115, 0.096648328, -0.0651386529,
          -0.0757768005, -0.0857363418, -0.285803616, 0.0333045274,
          0.516637266, -0.0245535541, 0.172841549, -0.0429456197,
          -0.0477245748, -0.0821052864, -0.24675414, 0.028218044,
          0.416362792, -0.0312301554, 0.0663886592, -0.0559446588,
          0.0312912315, -0.0879333541, -0.36252144, 0.010619455,
          0.256348282, -0.0272040349, 0.0544070303, 0.0281373337,
          0.313771129, -0.392498553, -0.0135999881, -0.113328211,
          0.0839039832, 0.0936141908 ]
      - [ 0.0166624803, -0.529966593, 0.0492172129, 0.178004622,
          0.156245723, -0.076873824, -0.076873824, -0.0766132027,
          -0.075310111, -0.076873824, -0.076873824, -0.075310111,
          -0.0750494897, -0.076873824, -0.076873824, -0.0179893225,
          0.0104862498, -0.076873824, -0.076873824, 0.618866324,
          0.589494646, -0.076873824, -0.076873824, -0.0535935573,
          -0.127942011, -0.090074569, -0.485030591, 0.0488036498,
          0.455735981, -4.81906609e-05, 0.2000027, -0.0788499266,
          -0.241567463, -0.100837909, -0.387618929, 0.0580579825,
          0.632339954, 0.00770994509, 0.380099535, -0.0698397979,
          -0.304685473, -0.0813368559, -0.3585985, 0.0514052548,
          0.624165654, 0.0114309089, 0.362748742, -0.0326521285,
          -0.239533111, -0.0464235321, -0.399237514, 0.0240662098,
          0.3859061, 0.00759855099, 0.133884639, -0.00702548306,
          -0.120038539, -0.0293876678, -0.362821758, -0.00643422594,
          0.0857808813, 0.0133366184, 0.126555175, -0.0446972921,
          -0.246918201, -0.0319614038, -0.184722692, 0.000327705406,
          0.274789989, 0.0101216612, 0.140579745, -0.0477310754,
          -0.26218003, -0.0459928401, -0.186588019, 0.0162627324,
          0.358177722, 0.00425320165, 0.133111492, -0.0265879631,
          0.0960812867, -0.0652165189, -0.342719197, 0.0279355645,
          0.273178905, 0.005625071, 0.158819512, -0.234961227, 0.3740367,
          0.123093784, -0.047471907, -0.0934240893, -0.206968218,
          0.0856947973 ]
      - [ -0.0776002482, -0.0385677367, 0.0839991122, 0.207182661,
          -0.104121611, -0.0596087091, -0.0596087091, -0.059145689,
          -0.220019013, -0.0596087091, -0.0596087091, -0.0568306074,
          -0.276243269, -0.0596087091, -0.0596087091, 0.0217788741,
          0.0814818665, -0.0596087091, -0.0596087091, 0.529500127,
          0.504672527, -0.0596087091, -0.0596087091, -0.0447825789,
          -0.4748061, -0.0547999404, -0.564694762, 0.0840827599,
          0.734947085, 0.0222232863, 0.167784095, 0.0169017669,
          0.0964969546, -0.0315571204, -0.348233789, 0.0871051773,
          0.510690451, 0.0215343907, 0.038090013, 0.0293820277,
          0.170236334, -0.0195168983, -0.292948127, 0.0816116929,
          0.384261757, 0.0197188314, -0.0684944168, -0.0271762721,
          -0.267080814, -0.0277668182, -0.355857819, 0.0390961543,
          0.323911041, 0.018501265, -0.00356465369, -0.0282878205,
          -0.223868117, -0.028770363, -0.36986661, 0.0175852794,
          0.284566104, 0.0182312503, 0.0156921744, 0.0229579713,
          -0.0208363589, -0.000408909807, -0.261517972, 0.0352216549,
          0.265803814, 0.017111538, -0.0906278715, 0.040246781,
          0.139287025, -0.00376820704, -0.307533443, 0.0687336028,
          0.333946437, 0.0144585371, -0.180249333, -0.0180038139,
          -0.242130503, -0.0324553773, -0.378008217, 0.075434126,
          0.504284561, 0.0242101271, 0.0432669371, -0.25234282,
          0.184409887, 0.33103168, 0.0493569598, -0.0479423665,
          -0.252404243, -0.0121092536 ]
      - [ 0.0334247686, 0.142754704, 0.414668709, -0.495891899,
          1.30057263, -0.00266984361, -0.00266984361, -0.900691211,
          -0.0228964034, -0.00266984361, -0.00266984361, -0.460258484,
          0.897652507, -0.00266984361, -0.00266984361, -0.297513872,
          -0.653536022, -0.00266984361, -0.00266984361, 0.450083137,
          -0.381753296, -0.00266984361, -0.00258747395, 0.111526407,
          -0.436470568, 0.0622040369, -1.01069188, -0.132627487,
          0.890033364, 0.0501192883, 0.310036838, 0.143705249,
          -0.00488718273, 0.106654562, -0.0189208444, -0.0292163193,
          0.714218557, 0.0721131489, 0.210816666, 0.130218714,
          0.465797633, 0.135202527, 0.437029034, -0.0775124356,
          0.197087079, -0.016700225, -0.620001316, 0.185346603,
          0.576390505, 0.0788257048, -0.104426868, -0.185167208,
          -0.117592275, -0.0666814223, -0.698670387, 0.0632341057,
          -1.14434671, 0.128471941, -0.312992334, -0.239815935,
          0.0625081509, -0.0108580599, -0.460415572, 0.28751263,
          0.294842631, 0.229973853, -0.256880254, -0.118492678,
          0.385013938, 0.0278671049, -0.45069015, 0.456144392,
          1.47166538, 0.254968911, -0.14757733, -0.165252, -0.160811692,
          0.0061614858, -0.802542806, 0.192495838, -0.0927573964,
          0.184481099, -0.427498698, -0.248521119, 0.0881431401,
          -0.00807748735, -0.443711907, 0.0332502648, 0.300531685,
          0.467937052, -0.273673475, 0.0573696755, -0.659964085,
          0.0745484903 ]
      - [ -0.0153334904, -0.0557374842, 0.129717976, 0.1758935,
          -0.0904573053, -0.0398221612, -0.0398221612, -0.0394487865,
          -0.274717689, -0.0398221612, -0.0398221612, -0.0379552804,
          -0.373965472, -0.0398221612, -0.0398221612, 0.0374524668,
          0.124295302, -0.0398221612, -0.0398221612, 0.650991201,
          0.167486906, -0.0398221612, -0.0398221612, -0.0485801324,
          -0.0652219802, -0.0913526639, -0.593595922, 0.0854884833,
          0.326973885, -0.00129339774, 0.0833763257, -0.0586852096,
          -0.136995986, -0.0748229921, -0.313336432, 0.0905162916,
          0.353999078, -0.00239368272, 0.00349719869, -0.0692289248,
          -0.264490187, -0.0623839386, -0.167487279, 0.0918574482,
          0.51323539, 0.00514808018, 0.0609208308, -0.0414245613,
          -0.170011625, -0.06650047, -0.38717714, 0.0796685144,
          0.469037503, 0.00774247432, 0.16682376, -0.0552472621,
          -0.32813409, -0.0430747345, -0.31684798, 0.0538769253,
          0.268025666, 0.000274289196, -0.0338887312, -0.00972726569,
          0.0851065591, -0.0346115716, -0.163322493, 0.0736281201,
          0.423791677, 0.0024760738, 0.0169359948, -0.028239049,
          -0.105119169, -0.0545542017, -0.285713255, 0.0968026072,
          0.631998897, 0.0051880097, 0.188989162, -0.0771040097,
          -0.355674505, -0.0713693798, -0.314652264, 0.083428815,
          0.53738302, 0.00165884115, 0.0844126418, -0.365801096,
          0.364489406, 0.0781693831, -0.0657555163, -0.0213126373,
          -0.300293952, 0.310504317 ]
      - [ -0.237324178, -1.20984578, 0.0105444556, -0.839005947,
          0.556976199, 0.020625649, 0.020625649, 0.0104075316,
          0.398190677, 0.020625649, 0.020625649, -0.0556051694,
          0.884023011, 0.020625649, 0.020625649, 0.135110378,
          -0.523970306, 0.020625649, 0.020625649, -0.0323882475,
          0.708238125, 0.00901702046, 0.020625649, 0.352245718,
          -0.0350176878, 0.35283637, -1.03378212, -0.300658196,
          1.21689868, 0.155028164, 0.605348051, 0.352748394, 0.299141675,
          0.251220524, -0.826780975, -0.166217208, 1.50781012,
          0.116215497, 0.624742687, 0.131103396, 0.307056844,
          0.197067484, -0.378333002, -0.25460735, 1.06684351,
          0.00145707373, -0.0507463664, 0.0555460006, -0.251649827,
          0.15924491, -0.588372648, -0.419275612, 0.484205931,
          -0.0248332471, -0.276973784, 0.267583758, -0.434873968,
          0.342987359, -0.138250813, -0.514957964, 0.0731280074,
          0.0498400852, -0.234631628, 0.379810423, -0.361684889,
          0.506961823, -0.533679187, -0.49667117, 0.196708962,
          0.0473745652, -0.659466386, 0.476531655, -0.0339075364,
          0.520541728, -0.757127881, -0.577691436, -0.306705803,
          0.0726868287, -0.756060898, 0.269452214, -0.829353213,
          0.463118762, -0.599157929, -0.510087788, 0.394696981,
          0.126288414, -0.0729152039, 0.0703078732, 0.0439748205,
          0.12973471, 0.372280359, 0.164367512, -0.971360028,
          0.190694675 ]
      - [ 0.295090556, -0.636863649, 0.39234075, 1.89010608,
          -0.416557282, 0.0574888475, 0.106445938, 0.0907978937,
          0.130947381, 0.106445938, 0.106445938, 0.0489963405,
          -0.0794362277, 0.106445938, 0.106445938, -0.525553286,
          -0.182275727, 0.106445938, 0.106445938, 0.45765695,
          -1.16100669, -0.650224924, -0.45662874, -0.0615172312,
          -0.785762727, -0.0676811635, -0.815185785, -0.0613441207,
          0.573091447, -0.101094387, 0.0249774624, -0.0760197937,
          -0.0569759533, -0.0787412599, -0.152078405, 0.0103444085,
          0.837281048, -0.0537420921, 0.49726066, -0.096603319,
          0.00384919834, -0.0174126569, 0.578991592, -0.0551855341,
          0.464006633, -0.0867405981, 0.0582508147, 0.126286954,
          1.09280038, 0.0345577896, 0.236642525, -0.1831211,
          -0.335806429, -0.126682028, -0.318860501, 0.120174006,
          -0.0850544795, 0.115252435, 0.00781179126, -0.195974872,
          -0.330803424, -0.063602291, -0.122172691, 0.12000785,
          -0.107970692, 0.126562476, -0.0400682576, -0.0291316155,
          0.463166416, -0.00721018109, 0.138222188, 0.122704074,
          -0.0459957048, 0.0730907097, -0.504528701, -0.0338476375,
          0.428400546, -0.0272275619, 0.073872529, 0.021000728,
          -0.565840006, 0.0363744199, -0.646625221, -0.0929059833,
          0.446130395, -0.105164647, -0.29643169, 0.00122737198,
          0.697117329, 0.538775444, -0.335814387, 0.380847007,
          -1.31522858, 0.0330756642 ]
      - [ -0.839723051, 0.376001805, 0.166650668, -0.398212641,
          1.07402384, 0.229553774, 0.229553774, -0.153448984, 1.05739915,
          0.229553774, 0.229553774, -1.53530097, 0.159919471,
          0.229553774, 0.229553774, -0.917067051, -0.30424273,
          0.229553774, 0.229553774, -0.245612472, -0.561856985,
          0.209097594, 0.0759437978, -0.492626667, -1.45219266,
          -0.408080518, 0.0438781045, -0.0162623934, -0.0475579835,
          -0.231922567, 0.00875642616, -0.492277175, -1.17176533,
          -0.429986507, 0.63990283, 0.0301728342, -0.479361475,
          -0.257901013, -0.40654847, -0.18632789, 1.48928285,
          -0.308699757, 1.21285975, 0.224908128, 0.266199827,
          -0.237698972, -0.635795057, -0.0837875456, 0.843895733,
          -0.213745907, 0.211666152, 0.189867556, 0.759680688,
          -0.197051346, -0.396610945, -0.123045638, -1.332461,
          -0.0862585679, -0.600501955, -0.0471341349, 0.472116739,
          -0.144933999, -0.215585575, 0.0848921537, 0.491971701,
          0.0430477671, -0.427321613, 0.0283240676, 0.749719322,
          -0.110954665, -0.302001387, 0.170824513, 1.27469635,
          0.0865365267, 0.687465906, 0.0649658889, 0.484966755,
          -0.0747024193, -0.2194594, -0.0762160048, 0.382062674,
          -0.139904365, 0.509689331, 0.049941048, 0.556598485,
          -0.128297314, 0.116086066, 0.0274691917, 0.446980208,
          -0.03111949, -0.493636519, 0.0155232111, -0.0775305256,
          0.112313636 ]
      - [ -0.36889112, -0.559020638, 0.367433518, -0.38803941,
          -0.443524271, 0.160458073, 0.160458073, -0.099681668,
          -0.0846974552, 0.160458073, 0.160458073, 0.0956433415,
          0.293968379, 0.160458073, 0.160458073, -0.193341702,
          -0.017478833, 0.160458073, 0.160458073, -0.373868197,
          0.166538641, 0.160836756, 0.160458073, 0.0882270858,
          -0.266349077, 0.101995155, -0.0297341403, 0.0122794788,
          -0.136977762, 0.0802504048, -0.0461759418, 0.0855461583,
          -0.757287383, 0.105899431, -0.37801674, 0.0329735875,
          0.224961683, 0.0969174504, 0.159311071, 0.141149178,
          -0.211445764, 0.135713324, -0.457621127, -0.0015481991,
          -0.150952667, 0.102738105, 0.159496546, 0.141328618,
          0.0249764118, 0.166422501, 0.0166305453, -0.022466829,
          -0.269407839, 0.0865479112, -0.351844668, 0.155978143,
          0.339915335, 0.145997643, -0.0137114655, -0.00477147242,
          -0.16784814, 0.0979772657, 0.172245696, 0.0853441581,
          -0.337251812, 0.0960872695, -0.116662271, 0.0226316843,
          0.277447313, 0.091789417, 0.298743486, 0.041418083,
          -0.466784865, 0.0822475851, -0.108369611, 0.0111109167,
          0.0602726899, 0.074557513, 0.0407394767, 0.111814588,
          0.35738501, 0.0831641406, -0.158405587, 0.0118915755,
          -0.269680142, 0.0740113556, 0.0271790083, -0.142181471,
          -0.183345452, -0.0475799292, -0.172907725, 0.142108366,
          0.162492335, 0.241414011 ]
      - [ -0.300424755, -0.241719633, 0.861237228, -0.0408870019,
          -0.0361368842, -0.0408870019, -0.0408870019, -0.0408870019,
          0.0689915195, -0.0408870019, -0.0408870019, 0.0930940062,
          0.252240956, -0.0408870019, -0.0408870019, 0.0882523954,
          0.168687627, -0.0408870019, -0.0408870019, 0.0165033676,
          -0.326045066, -0.0431159548, -0.192694485, 0.0721309409,
          0.0572880693, 0.0771774799, 0.20576413, -0.0751712993,
          -0.249282196, 0.0293355379, -0.12965779, 0.0635298863,
          -0.457567394, 0.0930435807, -0.130707681, -0.0657435507,
          0.0286756661, 0.0502365232, 0.0792139396, 0.120524749,
          -0.0495845936, 0.114438988, -0.312254936, -0.0611631013,
          -0.0768498033, 0.0600844286, 0.0645201728, 0.14115724,
          0.269006819, 0.138974816, -0.0240343511, -0.0599226616,
          -0.123016328, 0.054257866, -0.29187879, 0.137440011,
          0.355198443, 0.0969266221, -0.191637546, -0.0518777482,
          -0.0548912734, 0.0509345531, 0.0869353563, 0.0305349324,
          -0.314364225, 0.0336051062, -0.221209317, -0.0450666249,
          0.277139693, 0.0331510492, 0.15362744, -0.0079574557,
          -0.393333793, 0.0218529608, -0.072411418, -0.075096406,
          0.027524868, 0.0176039562, 0.0686797798, 0.078441672,
          0.573212743, 0.0343764201, 0.0211035274, -0.0617447942,
          -0.215958863, 0.0170384943, -0.0223048627, -0.128703356,
          -0.0968598649, -0.0471983589, -0.0765630528, 0.0191408489,
          0.0787304267, 0.25145328 ]
      - [ -0.262028903, -0.55720067, 0.0841588676, 0.0156811681,
          -0.115926608, 0.0156811681, 0.0156811681, 0.0156811681,
          0.157928795, 0.0156811681, 0.0156811681, 0.0223731566,
          0.386418581, 0.0156811681, 0.0156811681, 0.0229891017,
          0.0311438125, 0.0156811681, 0.0156811681, 0.0198223908,
          0.0221474674, 0.0156811681, 0.0156811681, 0.107711077,
          -0.136622593, 0.165340602, 0.250941128, -0.0304478463,
          -0.390012413, 0.10311684, -0.143384323, 0.100178674,
          -0.634106278, 0.151859611, -0.112442277, -0.00845598988,
          -0.0170603078, 0.122369483, 0.246692896, 0.107919641,
          -0.480396658, 0.150289491, -0.374753922, -0.00451916549,
          -0.00814325083, 0.132907122, 0.390067071, 0.119276449,
          -0.209579945, 0.190475538, 0.0373520255, -0.0170857646,
          -0.102948181, 0.1184154, -0.188451126, 0.215154156,
          0.563218176, 0.168411538, -0.185907528, -0.0034873886,
          -0.150367662, 0.114278644, 0.123798668, 0.082168512,
          -0.543820441, 0.132728636, -0.189786837, -0.0159699991,
          0.102960169, 0.10565161, 0.220532015, 0.0280686505,
          -0.775873065, 0.117215768, -0.081933029, -0.0270453226,
          -0.0194909275, 0.101451278, 0.119846426, 0.115370892,
          0.234186143, 0.126183197, -0.0884589702, -0.0270770881,
          -0.446042776, 0.104616754, 0.142917037, -0.315728992,
          0.202216268, -0.0539346337, -0.0918332189, 0.35580349,
          0.137772858, -0.2342958 ]
      - [ -0.46965453, -0.19857806, 1.07935297, 0.00480743591,
          -0.770916164, 0.00749012129, 0.00749012129, 0.00749012129,
          -0.0326281451, 0.00749012129, 0.00749012129, 0.112870142,
          0.0497163609, 0.00749012129, 0.00749012129, 0.087433584,
          0.0294054672, 0.00749012129, 0.00749012129, 0.0478884168,
          -0.0220886804, 0.00749012129, 0.00749012129, 0.117034033,
          0.21311599, 0.104185015, 0.0685187429, -0.0138014136,
          -0.237898409, 0.0657552034, -0.133761823, 0.101100996,
          -0.303743154, 0.118344024, -0.0283045582, -0.016124526,
          -0.0787253827, 0.0815626159, 0.0679674223, 0.124579258,
          -0.0747974962, 0.128227025, -0.161850259, -0.0188182965,
          -0.230319917, 0.0878098533, 0.0733543932, 0.151242599,
          0.219624996, 0.150389284, -0.0547677241, -0.0217857491,
          -0.375954449, 0.083701551, -0.3892667, 0.164757058,
          0.267969817, 0.123705104, -0.417211711, -0.000861250213,
          -0.209465489, 0.0841396973, 0.0226576682, 0.0780999735,
          -0.525679231, 0.0740244612, -0.362048268, 0.0134614445,
          0.309709042, 0.0752591193, 0.180406511, 0.0381533988,
          -0.468843371, 0.0552356876, -0.179189861, 0.00502715725,
          0.218096912, 0.0675089061, 0.196914971, 0.0918342769,
          0.264183879, 0.0697771609, -0.109274529, -0.00296545238,
          -0.0891903564, 0.0634319559, 0.0837822258, -0.0603767224,
          -0.140813783, 0.0860627517, -0.134265244, 0.159248531,
          0.0710421428, 0.0191023871 ]
      - [ -0.251352459, 0.0531110317, 0.420178205, -0.485011697,
          -0.0972889587, 0.0531751104, 0.0531751104, -0.0466397479,
          0.0697638988, 0.0531751104, 0.0531751104, 0.0244593397,
          0.151780322, 0.0531751104, 0.0531751104, 0.0932905078,
          0.176946267, 0.0531751104, 0.0531751104, -0.256088942,
          -0.387246221, 0.055522453, 0.0531751104, 0.0654748678,
          0.00834580511, 0.0763731599, 0.092627123, -0.0566591024,
          -0.215979502, 0.0235913489, -0.0747404099, 0.0632296801,
          -0.0830204859, 0.0738092959, 0.0319974236, -0.0595238134,
          -0.228667498, 0.0192943215, -0.081317082, 0.0641668513,
          -0.0031461122, 0.065531373, -0.0242611747, -0.0569929145,
          -0.235854045, 0.0154118286, -0.0860607252, 0.0485690087,
          0.0116829826, 0.0601226948, 0.0192741081, -0.0458128005,
          -0.145347238, 0.0162347239, -0.127135083, 0.0532539599,
          0.0377639346, 0.0541754179, -0.0112345405, -0.0335036032,
          -0.0430323109, 0.0210007839, 0.00681283651, 0.057046283,
          -0.0323222689, 0.0570667088, 0.0211299099, -0.0248692278,
          0.0525175072, 0.0227893237, 0.0456792042, 0.0609091818,
          0.0543991998, 0.0687715262, 0.107920803, -0.0308961514,
          -0.0295050722, 0.0247104038, 0.0116715729, 0.070663318,
          0.178665429, 0.0718454644, 0.090128921, -0.0437522419,
          -0.156968966, 0.0255475193, -0.0196034741, 0.0432555154,
          -0.0280383565, -0.0305542201, -0.0329070427, 0.229191735,
          0.0141878296, -0.195135519 ]
      - [ -0.470887542, -0.105954029, 0.971650541, -0.033597447,
          -0.0323697291, -0.0337725431, -0.0337725431, -0.0302705746,
          0.00245341007, -0.0337725431, -0.0337725431, 0.0462327152,
          0.3289437, -0.0337725431, -0.0337725431, 0.0412809514,
          0.219615325, -0.0337725431, -0.0337725431, -0.00282261102,
          -0.596548915, -0.0337725431, -0.0337725431, 0.0674745217,
          0.206995592, 0.0387982987, 0.128756732, -0.0809809566,
          -0.306988388, 0.0174891409, -0.0741645768, 0.129433721,
          -0.174417257, 0.133535519, -0.0219281949, -0.103521593,
          -0.243180111, 0.0483258255, -0.0251758099, 0.137190178,
          -0.130147174, 0.16619128, -0.16398479, -0.0710869208,
          0.0674301311, 0.0792183727, 0.121921271, 0.137905076,
          0.171406344, 0.171643347, 0.00434168475, -0.0717941895,
          0.0030041805, 0.0883685276, -0.202045143, 0.150528729,
          0.417851567, 0.151833549, -0.297668874, -0.0768726021,
          -0.225233555, 0.0619246848, -0.0159637611, 0.0716546252,
          -0.583602309, 0.0577955358, -0.18041794, -0.0690218061,
          0.229469523, 0.0288392436, 0.186013743, -0.092697911,
          -0.692421794, -0.0353186689, -0.0047042775, -0.0750693232,
          0.292670131, 0.00355442846, 0.278063089, -0.0966054127,
          0.119322538, -0.0368629061, 0.100644045, -0.0913801715,
          -0.00228849379, -0.000210357801, 0.17616041, -0.252775759,
          -0.0753303021, -0.232692152, -0.231892034, 0.111805879,
          0.267538428, 0.413346201 ]
      - [ -0.220990136, -0.0850457177, 0.362183094, -0.323936611,
          -0.220925078, 0.0248114746, 0.0248114746, 0.0130716385,
          0.088963829, 0.0248114746, 0.0248114746, 0.00743599888,
          0.224462748, 0.0248114746, 0.0248114746, -0.0584332086,
          0.203015134, 0.0248114746, 0.0248114746, -0.206152841,
          -0.0336695462, 0.0267174765, 0.0248114746, 0.083395794,
          -0.00711274659, 0.09832488, 0.0656529516, -0.0972326845,
          -0.138924733, 0.0201439206, -0.0427926406, 0.0747556537,
          -0.149861142, 0.081257388, -0.0613042712, -0.114167497,
          -0.165863439, 0.0112607703, -0.0385668352, 0.0467715263,
          -0.12785548, 0.0749721974, -0.100959428, -0.127610341,
          -0.199240461, 0.00431220606, -0.0573716946, 0.0607547201,
          0.0251113903, 0.0893317983, 0.0300624184, -0.124159463,
          -0.188991547, 0.00678355759, -0.128361776, 0.104586869,
          0.149941802, 0.105385311, 0.0830847621, -0.11053969,
          -0.120251633, 0.017052073, 0.00097646506, 0.0766935945,
          -0.022405507, 0.10649249, 0.108011723, -0.100736253,
          0.014901828, 0.018799223, 0.0477262959, 0.0746491551,
          0.0633681342, 0.0998050198, 0.128368869, -0.102333337,
          -0.0452676937, 0.0245067384, 0.0434888937, 0.0855859146,
          0.185838446, 0.0984359533, 0.0988670737, -0.0893937573,
          -0.0936504453, 0.0262161884, 0.0192805473, 0.0262244456,
          -0.0249741059, -0.0628279671, -0.0526296273, 0.196092486,
          0.00667762058, -0.088562876 ]
      - [ -0.221205026, -0.134788051, -0.0537463799, -0.00534764118,
          -0.00272124703, 0.0925918669, 0.110105149, 0.100305572,
          0.22040768, 0.110105149, 0.110105149, 0.378233761,
          0.0217948034, 0.110105149, 0.110105149, -0.0214545522,
          -0.44727692, 0.110105149, 0.110105149, -0.418649197,
          -0.0917697772, -0.0957883224, -0.0913219452, 0.121093266,
          -0.289789587, 0.141841829, -0.0996187031, -0.0382701755,
          -0.147674963, 0.0573445037, -0.000429781823, 0.125464529,
          -0.5017066, 0.158474445, -0.10922391, -0.060537044,
          -0.196940944, 0.0639710352, 0.0357554853, 0.154752433,
          0.0439890623, 0.177876145, 0.0373856127, -0.0889121592,
          -0.48864907, 0.0578524694, -0.0788554847, 0.180201933,
          0.461269706, 0.191902071, 0.376790404, -0.0783022717,
          -0.479855955, 0.0580252036, -0.288694263, 0.160519913,
          0.176836595, 0.163856179, 0.123870358, -0.0508553088,
          -0.189592823, 0.0648958832, 0.103088498, 0.108174205,
          -0.380575806, 0.119092397, -0.200658515, -0.0298774093,
          0.188948646, 0.0495309122, 0.123046085, 0.0988054648,
          -0.143098399, 0.11413949, -0.0975041091, -0.0482481867,
          -0.130823001, 0.0365914442, -0.0699838027, 0.13288331,
          0.255369633, 0.122727074, -0.0511153489, -0.0310392603,
          -0.15878059, 0.0422491096, -0.0990019664, 0.0166369267,
          -0.0308573395, 0.0301245768, -0.0831898749, 0.386906981,
          0.0341904052, -0.353811771 ]
      - [ -0.393769681, 0.153379604, 0.304038078, -0.439160049,
          -0.192636311, 0.140016079, 0.140016079, -0.386895746,
          0.267772377, 0.140016079, 0.140016079, -0.262868911,
          -0.039072156, 0.140016079, 0.140016079, 0.0351842158,
          -0.0595014095, 0.140016079, 0.140016079, -0.41481033,
          0.0276918374, 0.141397342, 0.139122412, 0.0378803723,
          0.0277902856, 0.0514050312, 0.418204308, -0.0536610857,
          -0.423139602, -0.000831737998, -0.0172433145, 0.00525229983,
          -0.3204602, 0.0344999433, 0.282011151, -0.0879224315,
          -0.665421903, -0.0106871119, -0.151970074, 0.0439156182,
          0.209053755, 0.0487446599, 0.13610296, -0.114539146,
          -0.995835304, 0.00361888856, 0.079174526, 0.0795035362,
          0.133944079, 0.0995248929, 0.366204739, -0.0986929685,
          -0.873355627, 0.02343476, -0.216451675, 0.126236558,
          0.283475995, 0.123140864, 0.171510249, -0.0649273247,
          -0.50249815, 0.0373532884, 0.12456505, 0.109457321,
          0.106182255, 0.106273137, 0.349914491, -0.04792694,
          0.00838138349, 0.0394262746, 0.30333364, 0.00702873478,
          -0.395889997, 0.0753798112, 0.386242002, -0.0712517276,
          -0.13612783, 0.0304915253, 0.278275877, 0.0501072258,
          0.229500726, 0.0393467695, 0.122587472, -0.0377222076,
          -0.10151872, 0.0110591184, 0.188539371, 0.264566898,
          -0.169045776, -0.0155237867, -0.271732241, 0.275953859,
          -0.109376319, 0.0251575224 ]
      - [ -0.0442296006, 0.0424131826, 1.20325029, 0.0999762118,
          0.27251929, -0.00962516479, -0.00962516479, -0.00187034928,
          0.251553744, -0.00962516479, -0.00962516479, -0.00083637354,
          0.449848741, -0.00962516479, -0.00962516479, 0.0534473285,
          0.0539643131, -0.00962516479, -0.00962516479, -0.118855886,
          -1.16658521, -0.165060371, -0.852533162, 0.151664436,
          0.137515634, 0.0607154146, -0.0928308219, 0.0965307727,
          0.247694507, 0.0347788669, 0.199061409, 0.141240731,
          -1.31421506, 0.183458358, -0.690289974, 0.091185689,
          0.469062328, 0.0798882768, 0.0124780228, 0.283879638,
          0.523141801, 0.1722316, -0.488891959, 0.137250006, 0.377465785,
          0.0838009492, -0.097426109, 0.208303377, 1.56534636,
          0.0838873461, 0.0135066882, 0.102920838, 0.230166793,
          0.0434786864, 0.0540593602, -0.0618659407, -0.546868324,
          -0.0369510837, 0.378248423, 0.0399405509, 0.157222003,
          -0.0294072982, -0.198728427, -0.0683052093, -0.447966665,
          -0.168595165, -0.448737621, 0.0455895253, -0.207119197,
          -0.0741373822, -0.13620539, -0.104011267, -0.410506159,
          -0.121373683, 0.247379437, -0.017668115, -0.671723425,
          -0.089724943, -0.438502431, -0.0189155452, 0.433648884,
          -0.0487308092, 0.741710484, 0.0278005209, -0.508030176,
          -0.0397696644, -0.278759509, -0.759738684, -0.444583803,
          -0.0525992587, 0.620270133, -0.118914321, 0.87386018,
          -0.118295021 ]
      - [ -0.296966016, 0.622370183, -0.464535207, 0.131225348,
          -0.00623670546, -0.0964638144, -0.0964638144, 0.0144913159,
          0.808736324, -0.0964638144, -0.0964638144, 0.000621924642,
          -0.219408631, -0.0964638144, -0.0964638144, 0.105798133,
          0.0456974432, -0.0964638144, -0.0964638144, 0.269256681,
          -0.0464118086, -0.0964638144, -0.0964638144, -0.344321758,
          -0.702846229, -0.0975132957, 0.341080159, -0.0794274136,
          0.3682594, 0.0214702412, 0.958156943, -0.2057686, -0.263569564,
          -0.00886217132, 0.427277982, -0.157670572, -0.185232177,
          0.0471691675, 0.982388556, -0.0969832316, -0.193495706,
          0.0932599902, 0.270798832, -0.148160711, -0.115410492,
          0.061278332, 0.560008764, -0.00555955153, 0.0949865282,
          0.153069913, 0.169401124, -0.161278084, -0.378780425,
          0.0907936618, 0.591646075, -0.0987035111, -0.272355348,
          0.122617908, 0.0655872375, -0.196561545, -0.643353462,
          0.0935505405, 0.490445673, -0.268020451, -1.25733519,
          0.0647328794, 0.419224352, -0.230747029, -0.938913465,
          0.0567352511, 0.491115004, -0.251927197, -0.829612494,
          0.0184752569, 1.2280376, -0.272120565, -1.24850309,
          0.0134256752, 0.372048914, -0.263338089, 0.481113642,
          -0.0600430779, 1.11016309, -0.179195926, -1.03769195,
          0.0307956859, 0.904187679, -0.335297823, 2.19821072,
          -0.630924225, -0.192435279, -0.0534804128, -0.749037921,
          -0.237034515 ]
      - [ 0.407764405, 0.481573582, 1.72575152, 0.476526022, 0.27895695,
          -0.444423199, -0.444423199, 0.0419227332, 0.927465618,
          -0.444423199, -0.444423199, -0.0174812507, -0.447934449,
          -0.444423199, -0.444423199, 0.421884835, 0.149215832,
          -0.444423199, -0.444423199, 0.505304217, -0.506719351,
          -0.444423199, -0.444423199, 0.113261804, 0.0781688169,
          0.00685744314, -0.859741628, 0.529761672, 1.55399048,
          0.125466108, 0.210010737, 0.115437761, 0.209707379,
          0.0216453634, -0.190662444, 0.406435966, 0.227689996,
          0.07523074, -0.344768435, 0.0990978479, 0.593185604,
          -0.0334323123, 0.192051098, 0.47542876, -0.621341228,
          0.0202743784, -1.34049559, 0.076690264, 0.67811203,
          -0.12112885, -0.296754628, 0.498055577, -0.442643911,
          0.0552318953, -0.435361385, -0.180922225, -0.566591918,
          -0.198596358, -0.0972368121, 0.467475086, 0.485605717,
          0.00960824639, -0.227307588, -0.11792624, -0.592642426,
          -0.126795247, 0.076411128, 0.33732906, -0.505551279,
          -0.00221598614, -0.624960661, 0.179727614, 0.892564297,
          -0.0200590976, -0.0781057477, 0.398148119, -0.720745385,
          0.0421253145, -0.99976033, 0.106013224, -0.285237283,
          0.0555639714, -0.207331106, 0.492657244, 0.538595915,
          0.108666904, -0.313969702, -0.605172336, 0.907694697,
          0.128623053, 0.0100172767, 0.118694648, -0.369929165,
          -0.189928129 ]
      - [ 0.275646508, 0.168897256, 0.472112685, -0.0882871225,
          0.38712886, -0.13119477, -0.13119477, -0.22876884, 0.118278116,
          -0.13119477, -0.13119477, 0.029916523, 0.622191012,
          -0.13119477, -0.13119477, 0.344727725, -0.0352786779,
          -0.13119477, -0.13119477, 0.0486621037, -0.803278625,
          -0.13119477, -0.13119477, 0.0231468584, 0.207670078,
          0.0286981035, 0.372751385, -0.175027549, -0.326004028,
          -0.0755247474, -0.0909515098, 0.0361553095, 0.236746013,
          0.0498501137, 0.370965749, -0.173067719, -0.425316423,
          -0.0604802184, -0.0750622675, 0.0420975909, 0.249384433,
          0.0606642775, 0.3537229, -0.127176046, -0.322447628,
          -0.045564469, -0.0961302966, 0.0597916096, 0.328360736,
          0.0407152027, 0.219400197, -0.0839797482, -0.182137027,
          -0.0375567786, 0.00247362559, 0.0107352929, 0.0812477767,
          0.0278098527, 0.247246861, -0.0753124356, -0.0110310176,
          -0.0473339334, -0.0521565191, -0.00941538904, 0.0718912929,
          0.0192260128, 0.344695181, -0.109781295, -0.248111174,
          -0.0583864599, -0.0769967884, 0.0348540135, 0.496027619,
          0.0145386932, 0.441765904, -0.16199024, -0.550316036,
          -0.0791383311, -0.183624968, -0.0171359014, 0.072934337,
          0.031561505, 0.4947851, -0.198349565, -0.545287073,
          -0.0951928422, -0.255926907, -0.00198769663, -0.0187506173,
          -0.0436906815, -0.0436807573, 0.107844025, -0.0369823202,
          0.0372480378 ]
      - [ -0.502693415, 0.36834085, 1.26581895, 0.151963457, 1.2582562,
          -0.212350994, -0.212350994, -0.03481704, 0.187016547,
          -0.212350994, -0.212350994, -0.0570087843, 0.0643580854,
          -0.212350994, -0.212350994, 0.111278594, 0.0151143791,
          -0.212350994, -0.212350994, 0.231711656, -0.932440519,
          -0.215740308, -0.212350994, -0.0214770995, 0.849604607,
          -0.094166249, 0.088705644, 0.174107075, 0.301631629, -0.123861,
          -0.353345424, -0.0274204165, 0.317945242, -0.0220890939,
          -0.131424218, 0.194877863, 0.354179353, -0.0880799592,
          -0.384096116, -0.0821149722, -0.0949639678, -0.0267318301,
          0.517573357, 0.290118724, 1.14478803, -0.0799363181,
          -0.552754045, -0.00638093334, 1.11374128, -0.195032194,
          -0.189166337, 0.217142582, 0.546046495, -0.119716659,
          0.399391174, -0.349969149, -0.946663916, -0.255709946,
          0.447604984, 0.0955272987, 0.144211411, -0.22230126,
          -0.783634007, -0.316242218, -0.629089653, -0.296847701,
          0.401177049, 0.0681537241, -0.325229168, -0.2404778,
          -0.612943292, -0.201608136, 0.444799095, -0.275006324,
          0.595536828, 0.16796501, 0.149206921, -0.212800011,
          -0.237215221, -0.28383407, -0.661563396, -0.105466649,
          1.59695876, 0.0735517666, -0.185865372, -0.180904552,
          -0.77841711, -0.927276731, 0.949145794, -0.899590969,
          0.526269257, 0.148040935, -0.0312897526, 0.234700695 ]
      - [ 0.259685427, 0.0139352651, 0.367058158, 0.0996023864,
          0.195375964, -0.0932076052, -0.0932076052, -0.00715383468,
          0.311751574, -0.0932076052, -0.0932076052, -0.012681854,
          0.501955569, -0.0932076052, -0.0932076052, -0.153348565,
          0.0135844219, -0.0932076052, -0.0932076052, 0.00137815578,
          -0.659066856, -0.0932076052, -0.0932076052, 0.055976402,
          0.135209352, 0.106285222, 0.458071649, -0.284082472,
          -0.541746557, -0.0572362505, -0.0787742585, 0.101010732,
          0.396739125, 0.106838807, 0.453256756, -0.295377344,
          -0.600826144, -0.05377727, -0.0264862329, 0.0252485834,
          0.125295103, 0.109517232, 0.348123699, -0.276223272,
          -0.417252123, -0.0464149788, -0.0335724354, 0.0504876003,
          0.10369429, 0.115707338, 0.209015727, -0.237697884,
          -0.227138355, -0.0284751095, 0.094928883, 0.116804317,
          0.183193639, 0.14758639, 0.451976091, -0.207978711,
          -0.116385937, -0.0161753111, 0.0985259563, 0.0504759513,
          0.111947656, 0.135536194, 0.479335606, -0.215879694,
          -0.225158215, -0.0310606565, 0.0331345536, 0.0433152504,
          0.254578173, 0.0913405865, 0.404875517, -0.280487448,
          -0.608340561, -0.0380499326, -0.000505030795, -0.0014474456,
          -0.108048864, 0.0913740993, 0.401967317, -0.29364112,
          -0.621009886, -0.0526305512, -0.0694937333, 0.0904818997,
          -0.223564878, -0.190564841, 0.0940337852, 0.0910378397,
          0.152323231, -0.0137471249 ]
      - [ 0.218910992, 0.0488760062, 0.0905790552, 0.183769062,
          0.168064371, 0.0604029484, 0.0675265789, 0.0769953579,
          0.426125348, 0.0675265789, 0.0675265789, 0.00955641642,
          -0.0336746573, 0.0675265789, 0.0675265789, -0.158133253,
          -0.311510623, 0.0675265789, 0.0675265789, -0.170393452,
          -1.04925644, -0.0185919143, -0.0144050466, -0.0260152444,
          -0.216831639, -0.00692405831, 0.00846764166, -0.0257989671,
          -0.203438133, -0.027442364, -0.0346507952, 0.0232107155,
          0.113214925, 0.0414074287, 0.212125614, -0.0498284101,
          -0.401108652, -0.0104139466, -0.0132541833, 0.0500565879,
          0.218199596, 0.0717609748, 0.362887025, -0.0478704087,
          -0.410413146, 0.00065202167, -0.0450351574, 0.0608658828,
          0.361772716, 0.0754291713, 0.449181706, -0.0277409013,
          -0.266810387, 0.00944071449, 0.0955338776, 0.0197774787,
          0.167791694, 0.0482393391, 0.440770835, -0.00675341673,
          -0.0518871099, 0.00689428346, 0.166127846, -0.0135529786,
          -0.0148694078, -0.00111995556, 0.136283576, 0.00957207661,
          -0.00339409639, -0.0150780929, 0.0673101395, -0.0289037339,
          -0.114457346, -0.0269817784, -0.0308822561, -0.0132051967,
          -0.262602389, -0.030685572, -0.0395859741, -0.0409601182,
          -0.251690984, -0.0313502438, -0.0820111409, -0.0173962768,
          -0.222618431, -0.0379936695, -0.0654178411, 0.146162391,
          0.166176662, -0.02880181, 0.00955362152, 0.158490598,
          0.0144079057, -0.46598947 ]
      - [ 0.192084342, 0.154007897, 0.225694984, 0.332021683,
          0.342241406, -0.06567204, -0.06567204, -0.00221206108,
          0.354689747, -0.06567204, -0.06567204, -0.262335181,
          0.116669551, -0.06567204, -0.06567204, -0.103512995,
          0.147583663, -0.06567204, -0.06567204, -0.00409527682,
          -0.836117625, -0.06567204, -0.06567204, -0.0861729831,
          -0.103155285, -0.0667276233, 0.162343532, 0.0185757093,
          -0.093947418, -0.0528861694, 0.0899990201, -0.0282047093,
          0.199828386, -0.0312994011, 0.304924667, 0.0296369866,
          -0.199566051, -0.0399367027, 0.031164581, 0.00874573737,
          0.368560016, -0.00558238942, 0.399257094, 0.0432952046,
          -0.272966057, -0.0259797145, -0.0151470667, -0.000801425427,
          0.266429812, -0.0138236815, 0.218400732, 0.0104992883,
          -0.390547395, -0.0256695133, 0.0356212109, -0.0439813025,
          -0.12712574, -0.0200310908, 0.180249721, -0.0348216295,
          -0.523070931, -0.0450000837, -0.097949028, -0.014421938,
          0.425759166, -0.0276444331, 0.351952612, -0.0448031127,
          -0.688897133, -0.0574604236, -0.163526997, -0.0188166555,
          0.562554002, -0.0356790125, 0.574505746, -0.0282326974,
          -0.617024481, -0.0505772345, -0.0578663014, -0.0742806196,
          -0.0406917036, -0.0664633438, 0.244460404, 0.00321828597,
          -0.218023032, -0.0557343923, 0.0745546296, 0.0335205421,
          -0.124774195, -0.215329975, -0.00820865389, 0.0726217553,
          0.146434441, 0.0957360268 ]
      - [ 0.215271011, 0.271811843, -1.3459866, -0.0151547091,
          -0.455256164, -0.0151547091, -0.0151547091, -0.0151547091,
          -0.0267649349, -0.0151547091, -0.0151547091, -0.0151547091,
          -0.0383751616, -0.0151547091, -0.0151547091, -0.0151547091,
          -0.0151547091, -0.0151547091, -0.0151547091, 0.283917248,
          0.957017422, 0.0253925193, 0.309983462, -0.0777580366,
          0.462613314, -0.0442317463, 0.483766049, -0.0394312888,
          -0.610236287, -0.0270802639, -0.0764370784, -0.0578578077,
          0.917483568, -0.173868924, 0.231069535, 0.0553764552,
          -0.0971956328, -0.0198925063, 0.529028237, -0.271753073,
          -0.88829565, -0.209757939, -0.186847284, 0.027372323,
          0.240938962, -0.0262833033, 0.757217824, -0.174120396,
          -0.892017305, -0.113409989, 0.0128666833, -0.0143093411,
          0.0432143174, -0.0321166068, 0.20012024, 0.180117548,
          1.63406169, 0.00803408865, -0.264737964, 0.0162480734,
          -0.272692889, 0.00118103158, 0.0397178456, 0.0711510107,
          0.218147218, 0.112397522, 0.00514605315, -0.034579698,
          -0.438492239, 0.0427965783, -0.0674516484, 0.0546252541,
          -0.0999867767, 0.0535635911, -0.266666889, -0.0249480642,
          -0.326220691, 0.0559167378, 0.268752694, -0.0165656731,
          -0.415029436, 0.00971012376, -0.0375099853, -0.080674164,
          -0.608420908, 0.0184425469, 0.235801727, 0.497618854,
          0.290625095, 0.102756523, -0.285791725, 0.490469337,
          -0.323771685, -0.771906078 ]
